\data\
ngram 1=1520
ngram 2=4328
ngram 3=4553

\1-grams:
-3.6828227	<unk>	0
0	<s>	-0.21551645
-1.2008175	</s>	0
-2.3025415	anh	-0.16228557
-2.038978	có	-0.17382452
-3.0842493	thích	-0.056288708
-2.5371308	tôi	-0.074761264
-3.3859854	giữ	-0.056288708
-3.0842493	trước	-0.056288708
-3.3859854	quyển	-0.11944277
-3.2272298	sách	-0.056288708
-2.3025415	này	-0.12908752
-2.2119803	cho	-0.1920922
-2.0852666	không	-0.19662525
-2.8190641	cô	-0.08323043
-3.2272298	ta	-0.0763367
-3.0842493	nghi	-0.08671878
-3.518694	ngờ	-0.056288708
-3.0842493	lúc	-0.056288708
-2.9768634	mình	-0.05628874
-3.3859854	say	-0.056288708
-3.2272298	rượu	-0.05628874
-2.1804557	đã	-0.10486305
-2.2828553	bị	-0.07281347
-3.3859854	toán	-0.056288708
-3.3859854	cưỡng	-0.11944277
-3.518694	bức	-0.056288708
-2.703569	nên	-0.056288708
-3.0842493	ưu	-0.08671878
-3.3859854	tiên	-0.056288708
-2.4729822	các	-0.06022497
-3.2272298	hoạt	-0.35872474
-2.7574885	động	-0.06542678
-3.3859854	bí	-0.056288708
-3.518694	mật	-0.056288708
-3.3859854	lỗ	-0.09735512
-3.2272298	mũi	-0.05628874
-3.3859854	hẹp	-0.056288708
-2.703569	tài	-0.069550686
-3.3859854	kiếm	-0.056288708
-2.9768634	tiền	-0.106055856
-3.518694	phờ	-0.056288708
-3.518694	phạc	-0.056288708
-2.5731483	sau	-0.12491089
-2.7574885	hành	-0.15172502
-3.2272298	trình	-0.056288708
-2.890836	dài	-0.071237296
-3.518694	đâu	-0.056288708
-2.1104028	là	-0.08752013
-3.518694	nền	-0.056288708
-3.518694	tảng	-0.056288708
-2.890836	sinh	-0.05628874
-2.8190641	học	-0.07341543
-2.038978	của	-0.14637543
-2.612425	ý	-0.05628874
-2.890836	thức	-0.0763367
-2.9768634	trẻ	-0.056288708
-2.890836	em	-0.0763367
-2.1510653	ở	-0.081079945
-2.9768634	trường	-0.05628874
-2.1510653	được	-0.068842486
-3.518694	cung	-0.056288708
-3.3859854	cấp	-0.056288708
-2.2286444	nước	-0.16638978
-3.0842493	sạch	-0.056288708
-2.3448114	để	-0.06220654
-3.518694	uống	-0.056288708
-2.0732238	một	-0.078778334
-3.518694	dãy	-0.056288708
-3.518694	tủ	-0.056288708
-3.0842493	lạnh	-0.056288708
-3.3859854	xếp	-0.056288708
-3.518694	dọc	-0.056288708
-2.703569	theo	-0.056288708
-3.0842493	căn	-0.08671878
-3.0842493	phòng	-0.08671878
-2.703569	hàng	-0.0641972
-3.3859854	nghìn	-0.11944277
-2.2459736	người	-0.07428975
-2.9768634	trung	-0.0804598
-3.0842493	á	-0.056288708
-3.518694	rời	-0.056288708
-3.3859854	quê	-0.056288708
-3.2272298	hương	-0.05628874
-2.4729822	đến	-0.056288708
-3.0842493	nga	-0.056288708
-2.703569	việc	-0.066197015
-2.9768634	thu	-0.05628874
-3.3859854	hoạch	-0.056288708
-2.0175614	và	-0.06456858
-3.2272298	bảo	-0.05628874
-3.3859854	quản	-0.056288708
-3.2272298	lúa	-0.05628874
-3.3859854	khâu	-0.056288708
-3.2272298	cuối	-0.05628874
-2.9768634	cùng	-0.056288708
-2.2286444	trong	-0.15354583
-2.9768634	mùa	-0.056288708
-2.890836	vụ	-0.07341543
-3.518694	mẫu	-0.056288708
-2.612425	phải	-0.05628874
-3.0842493	tập	-0.056288708
-3.518694	tành	-0.056288708
-3.2272298	diễn	-0.09735512
-3.2272298	quần	-0.05628874
-3.518694	quật	-0.056288708
-3.518694	tận	-0.056288708
-3.518694	khuya	-0.056288708
-3.2272298	toàn	-0.056288708
-3.0842493	bộ	-0.056288708
-3.518694	quy	-0.056288708
-3.0842493	điện	-0.056288708
-3.3859854	hóa	-0.056288708
-3.2272298	thư	-0.05628874
-3.3859854	viện	-0.056288708
-2.7574885	do	-0.05628874
-2.612425	công	-0.0763367
-3.518694	ty	-0.056288708
-3.518694	Lạc	-0.056288708
-3.518694	Việt	-0.056288708
-2.890836	giúp	-0.056288708
-3.2272298	nghiên	-0.35872474
-3.2272298	cứu	-0.05628874
-2.890836	thiết	-0.29097393
-3.2272298	kế	-0.056288708
-2.4729822	thế	-0.245728
-3.2272298	nhưng	-0.056288708
-2.5731483	đối	-0.293248
-2.1959321	với	-0.09835078
-3.518694	vượng	-0.056288708
-2.5731483	thì	-0.05628874
-2.8190641	khác	-0.07341543
-2.9768634	chỉ	-0.056288708
-3.2272298	vài	-0.05628874
-2.7574885	tiếng	-0.056288708
-3.518694	huýt	-0.056288708
-3.518694	sáo	-0.056288708
-3.3859854	hắn	-0.056288708
-3.0842493	phục	-0.056288708
-2.7574885	cả	-0.069550686
-2.4171004	hai	-0.113396645
-3.0842493	chú	-0.056288708
-3.3859854	chó	-0.056288708
-3.3859854	rồi	-0.056288708
-2.3231623	vào	-0.05628874
-2.612425	nhà	-0.07890905
-3.518694	khua	-0.056288708
-2.2828553	khi	-0.063698694
-2.9768634	tác	-0.056288708
-2.5731483	đầu	-0.20529048
-3.2272298	tư	-0.056288708
-3.2272298	bạc	-0.05628874
-2.8190641	sức	-0.24864247
-3.0842493	hay	-0.056288708
-3.2272298	tò	-0.35872474
-3.518694	mò	-0.05628874
-3.3859854	ưa	-0.056288708
-3.3859854	khám	-0.056288708
-3.518694	phá	-0.056288708
-3.3859854	sáng	-0.056288708
-2.9768634	tạo	-0.0804598
-3.2272298	tâm	-0.05628874
-3.518694	hồn	-0.056288708
-3.518694	cởi	-0.056288708
-3.518694	mở	-0.056288708
-2.8190641	họ	-0.056288708
-3.2272298	lắng	-0.05628874
-2.9768634	nghe	-0.05628874
-2.890836	mọi	-0.0763367
-2.890836	lời	-0.0763367
-3.518694	khuyên	-0.056288708
-2.890836	năm	-0.05628874
-3.3859854	nay	-0.05628874
-3.518694	Tứ	-0.056288708
-3.3859854	Sơn	-0.056288708
-2.7574885	đang	-0.069550686
-3.0842493	ấp	-0.26125178
-3.518694	ủ	-0.05628874
-2.9768634	đưa	-0.0804598
-3.518694	gạo	-0.056288708
-3.518694	Tam	-0.056288708
-3.518694	Giang	-0.056288708
-3.0842493	,	-0.056288708
-3.518694	Thất	-0.056288708
-3.518694	Núi	-0.056288708
-3.518694	Sam	-0.056288708
-2.890836	mang	-0.05628874
-2.9768634	thêm	-0.056288708
-3.0842493	qua	-0.056288708
-3.3859854	Mỹ	-0.056288708
-3.0842493	chủ	-0.056288708
-2.890836	cửa	-0.18169564
-3.2272298	trang	-0.056288708
-3.3859854	trí	-0.056288708
-3.3859854	nội	-0.05628874
-3.518694	thất	-0.056288708
-2.5371308	trên	-0.074761264
-2.703569	đường	-0.068206124
-3.518694	Nguyễn	-0.056288708
-3.518694	Bỉnh	-0.056288708
-3.518694	Khiêm	-0.056288708
-2.9768634	biết	-0.056288708
-3.2272298	nóng	-0.05628874
-2.8190641	mặt	-0.07341543
-3.0842493	quả	-0.05628874
-2.890836	cầu	-0.071237296
-3.518694	hút	-0.056288708
-3.518694	nhiệt	-0.056288708
-3.3859854	tôn	-0.056288708
-3.518694	pu	-0.056288708
-3.518694	sơn	-0.056288708
-3.3859854	chống	-0.056288708
-3.518694	vội	-0.056288708
-3.518694	hít	-0.056288708
-2.9768634	hà	-0.0804598
-3.3859854	bóc	-0.056288708
-3.518694	gỡ	-0.056288708
-3.518694	mồm	-0.056288708
-3.518694	nhai	-0.056288708
-3.518694	ngấu	-0.056288708
-3.518694	nghiến	-0.056288708
-2.7574885	còn	-0.05628874
-3.518694	thầy	-0.056288708
-2.8190641	lại	-0.056288708
-3.0842493	tưởng	-0.056288708
-3.0842493	rằng	-0.056288708
-2.9768634	nó	-0.056288708
-3.2272298	cố	-0.09735512
-3.518694	giảng	-0.056288708
-3.0842493	kể	-0.056288708
-3.0842493	lần	-0.0763367
-3.0842493	vợ	-0.056288708
-3.0842493	chồng	-0.05628874
-3.3859854	đùa	-0.056288708
-3.518694	giỡn	-0.056288708
-2.503873	cũng	-0.071237296
-3.2272298	nhớ	-0.05628874
-2.2459736	những	-0.08598085
-2.890836	điều	-0.08671878
-2.8190641	mà	-0.07341543
-3.3859854	hàn	-0.09735512
-2.703569	nói	-0.069550686
-3.518694	đơm	-0.056288708
-3.518694	đặt	-0.056288708
-3.518694	dối	-0.056288708
-3.2272298	nhau	-0.05628874
-3.3859854	tìm	-0.09735512
-2.890836	cách	-0.056288708
-2.6556103	ra	-0.06542678
-3.0842493	loại	-0.056288708
-3.3859854	vải	-0.056288708
-3.518694	ướp	-0.056288708
-2.9768634	ít	-0.056288708
-3.518694	thơm	-0.056288708
-3.3859854	vĩnh	-0.056288708
-3.518694	viễn	-0.056288708
-2.890836	hội	-0.05628874
-3.3859854	nghị	-0.056288708
-3.3859854	trưởng	-0.056288708
-3.3859854	phi	-0.056288708
-2.9768634	kết	-0.0804598
-3.518694	thúc	-0.056288708
-3.2272298	hôm	-0.09735512
-2.703569	ngày	-0.056288708
-2.5371308	làm	-0.074761264
-3.3859854	góc	-0.056288708
-3.518694	chuồng	-0.056288708
-3.3859854	khỉ	-0.056288708
-2.890836	mẹ	-0.05628874
-3.3859854	chặt	-0.056288708
-2.6556103	con	-0.056288708
-3.0842493	lòng	-0.0804598
-3.518694	che	-0.056288708
-3.2272298	mưa	-0.05628874
-3.518694	1giải	-0.056288708
-3.2272298	pháp	-0.056288708
-3.3859854	xử	-0.056288708
-2.8190641	lý	-0.08671878
-3.518694	úng	-0.056288708
-3.3859854	ngập	-0.056288708
-2.6556103	thành	-0.1974825
-3.2272298	phố	-0.056288708
-3.0842493	nguồn	-0.056288708
-2.703569	đây	-0.066197015
-2.9768634	nhiễm	-0.0763367
-3.518694	mặn	-0.056288708
-3.3859854	phèn	-0.05628874
-3.518694	khuẩn	-0.056288708
-2.9768634	bởi	-0.056288708
-3.3859854	thói	-0.056288708
-3.3859854	quen	-0.056288708
-3.518694	sả	-0.056288708
-3.3859854	rác	-0.056288708
-3.3859854	trực	-0.056288708
-2.9768634	tiếp	-0.056288708
-3.3859854	sông	-0.056288708
-3.0842493	lượng	-0.056288708
-3.2272298	thuốc	-0.05628874
-3.518694	trừ	-0.056288708
-3.3859854	sâu	-0.056288708
-2.890836	dùng	-0.0763367
-2.9768634	nông	-0.106055856
-2.9768634	nghiệp	-0.056288708
-3.518694	xây	-0.056288708
-3.518694	cảng	-0.056288708
-3.3859854	dòng	-0.056288708
-2.503873	ông	-0.067631185
-3.2272298	món	-0.05628874
-3.518694	quà	-0.056288708
-3.0842493	gần	-0.08671878
-2.5371308	đó	-0.099185936
-3.3859854	trò	-0.05628874
-3.518694	rách	-0.056288708
-3.518694	tươm	-0.056288708
-2.612425	thể	-0.061665174
-3.0842493	mua	-0.056288708
-2.8190641	ba	-0.13575083
-2.7574885	sản	-0.26444057
-3.2272298	phẩm	-0.05628874
-2.703569	cái	-0.056288708
-3.2272298	rẽ	-0.05628874
-3.518694	khanh	-0.056288708
-3.3859854	gấp	-0.056288708
-3.518694	tấp	-0.056288708
-2.8190641	xe	-0.056288708
-3.518694	lề	-0.056288708
-3.3859854	thương	-0.056288708
-3.518694	kêu	-0.056288708
-3.3859854	khóc	-0.056288708
-2.890836	yêu	-0.1833442
-3.518694	đỡ	-0.056288708
-3.3859854	lưu	-0.056288708
-3.518694	sùng	-0.056288708
-3.518694	cất	-0.056288708
-3.518694	chùm	-0.056288708
-3.0842493	ảnh	-0.056288708
-2.7574885	về	-0.056288708
-3.2272298	cảnh	-0.05628874
-3.0842493	dân	-0.05628874
-2.5371308	ăn	-0.105675235
-3.518694	cỏ	-0.056288708
-3.518694	afghanistan	-0.056288708
-3.0842493	nhờ	-0.056288708
-3.518694	tấm	-0.056288708
-3.518694	lợp	-0.056288708
-3.3859854	siêu	-0.056288708
-3.2272298	nhẹ	-0.05628874
-3.0842493	khả	-0.26125178
-3.3859854	năng	-0.056288708
-3.3859854	lọt	-0.056288708
-3.3859854	ánh	-0.056288708
-3.2272298	ban	-0.05628874
-3.2272298	đèn	-0.05628874
-3.518694	hề	-0.056288708
-2.7574885	định	-0.068206124
-3.0842493	nghĩa	-0.056288708
-2.9768634	rõ	-0.0804598
-3.518694	ràng	-0.056288708
-3.518694	khái	-0.056288708
-3.518694	niệm	-0.056288708
-2.890836	thời	-0.20866734
-3.3859854	gian	-0.056288708
-3.3859854	mùi	-0.056288708
-3.3859854	nổ	-0.056288708
-2.890836	ấy	-0.21939903
-3.3859854	nửa	-0.056288708
-3.518694	kín	-0.056288708
-3.518694	hở	-0.056288708
-2.4171004	như	-0.14366445
-2.890836	vậy	-0.05628874
-3.3859854	dây	-0.056288708
-2.8190641	bán	-0.07341543
-3.518694	trót	-0.056288708
-2.8190641	lớn	-0.056288708
-3.3859854	ma	-0.11944277
-3.518694	túy	-0.056288708
-3.518694	dọa	-0.056288708
-3.518694	chĩa	-0.056288708
-2.890836	tên	-0.05628874
-3.3859854	lửa	-0.056288708
-3.2272298	châu	-0.05628874
-3.518694	âu	-0.056288708
-3.518694	ếch	-0.056288708
-3.2272298	xanh	-0.05628874
-3.518694	hơi	-0.056288708
-2.8190641	khó	-0.07341543
-3.2272298	danh	-0.09735512
-3.3859854	đề	-0.05628874
-3.3859854	cử	-0.056288708
-2.7574885	bạn	-0.08323043
-3.518694	khâm	-0.056288708
-3.2272298	chí	-0.05628874
-3.3859854	tuyệt	-0.056288708
-3.518694	vời	-0.056288708
-3.2272298	sân	-0.05628874
-2.9768634	bay	-0.056288708
-3.3859854	phủ	-0.056288708
-2.9768634	hệ	-0.2117927
-3.518694	thống	-0.05628874
-3.518694	ray	-0.056288708
-3.2272298	tàu	-0.05628874
-3.518694	ngầm	-0.056288708
-2.503873	từ	-0.0641972
-2.9768634	minh	-0.056288708
-2.8190641	đồng	-0.056288708
-2.703569	sự	-0.069550686
-3.2272298	dù	-0.056288708
-3.518694	xì	-0.056288708
-3.518694	xụp	-0.056288708
-3.518694	húp	-0.056288708
-3.518694	hối	-0.056288708
-3.518694	hả	-0.056288708
-3.518694	vẽ	-0.056288708
-2.890836	cá	-0.05628874
-3.2272298	đều	-0.05628874
-3.518694	gật	-0.056288708
-3.518694	gù	-0.056288708
-3.518694	lia	-0.056288708
-3.518694	lịa	-0.056288708
-3.0842493	vừa	-0.056288708
-2.9768634	gặp	-0.056288708
-3.518694	dịu	-0.056288708
-3.518694	vung	-0.056288708
-3.3859854	cây	-0.056288708
-3.3859854	gỗ	-0.056288708
-3.0842493	đánh	-0.0804598
-3.3859854	giống	-0.056288708
-3.518694	điển	-0.056288708
-2.890836	hình	-0.05628874
-2.890836	thấy	-0.0763367
-2.7574885	gì	-0.14678942
-3.3859854	bà	-0.056288708
-3.518694	móc	-0.056288708
-3.0842493	chẳng	-0.056288708
-3.2272298	kim	-0.09735512
-3.3859854	chi	-0.05628874
-3.3859854	mặc	-0.056288708
-3.2272298	độc	-0.05628874
-3.518694	Park	-0.056288708
-2.5731483	nhiều	-0.07341543
-2.890836	quốc	-0.071237296
-3.518694	mến	-0.056288708
-3.3859854	lặng	-0.056288708
-3.3859854	lẽ	-0.056288708
-3.518694	gạt	-0.056288708
-3.3859854	mắt	-0.056288708
-3.518694	mệnh	-0.056288708
-3.518694	săn	-0.056288708
-3.2272298	giảm	-0.09735512
-2.8190641	giá	-0.056288708
-3.518694	đốt	-0.056288708
-3.518694	nến	-0.056288708
-3.518694	chuông	-0.056288708
-3.3859854	vang	-0.056288708
-2.7574885	cần	-0.056288708
-3.3859854	quảng	-0.056288708
-3.2272298	cáo	-0.05628874
-3.518694	rùm	-0.056288708
-3.518694	beng	-0.056288708
-2.9768634	ngay	-0.0763367
-3.2272298	lập	-0.05628874
-3.518694	tức	-0.056288708
-3.0842493	chiếc	-0.091245376
-2.890836	máy	-0.056288708
-3.518694	bơm	-0.056288708
-3.0842493	hợp	-0.056288708
-3.518694	khựng	-0.056288708
-3.2272298	làn	-0.09735512
-3.518694	da	-0.056288708
-3.0842493	nhất	-0.056288708
-2.9768634	bé	-0.05628874
-3.0842493	luôn	-0.056288708
-3.2272298	hồng	-0.05628874
-3.518694	hào	-0.056288708
-3.2272298	thực	-0.05628874
-3.518694	hư	-0.056288708
-2.7574885	nào	-0.15796804
-3.518694	thưa	-0.056288708
-3.518694	thôi	-0.056288708
-3.518694	im	-0.056288708
-3.518694	vàng	-0.056288708
-3.518694	ngậm	-0.056288708
-3.518694	bồ	-0.056288708
-3.518694	hòn	-0.056288708
-3.3859854	ngọt	-0.056288708
-3.518694	xuôi	-0.056288708
-3.3859854	cơn	-0.056288708
-3.3859854	giận	-0.056288708
-2.9768634	chưa	-0.05628874
-3.518694	kỹ	-0.056288708
-3.518694	sư	-0.056288708
-3.2272298	thử	-0.05628874
-3.518694	nghiệm	-0.056288708
-3.2272298	dạng	-0.05628874
-2.9768634	vũ	-0.2117927
-3.518694	khí	-0.05628874
-3.3859854	đặc	-0.11944277
-3.3859854	biệt	-0.05628874
-3.518694	bắn	-0.056288708
-3.3859854	điểm	-0.056288708
-3.518694	gắn	-0.056288708
-3.518694	đĩa	-0.056288708
-2.9768634	bảy	-0.05628874
-3.2272298	trăm	-0.05628874
-3.2272298	bốn	-0.09735512
-3.2272298	mươi	-0.056288708
-3.3859854	chuyên	-0.056288708
-3.0842493	dụng	-0.056288708
-3.518694	nhằm	-0.056288708
-3.3859854	mục	-0.056288708
-3.2272298	tiêu	-0.05628874
-3.2272298	giả	-0.056288708
-3.3859854	tất	-0.11944277
-3.0842493	mỹ	-0.056288708
-3.3859854	đơn	-0.056288708
-3.518694	thuần	-0.056288708
-2.6556103	vì	-0.056288708
-3.0842493	muốn	-0.056288708
-3.3859854	sở	-0.11944277
-3.3859854	hữu	-0.056288708
-3.0842493	nguyên	-0.08671878
-3.2272298	quý	-0.05628874
-3.0842493	gia	-0.0804598
-3.518694	vé	-0.056288708
-2.890836	phụ	-0.18169564
-3.518694	hết	-0.056288708
-2.890836	bao	-0.1833442
-3.518694	nhiêu	-0.05628874
-2.890836	phần	-0.05628874
-3.518694	i	-0.056288708
-2.8190641	phát	-0.30038092
-3.2272298	hiện	-0.05628874
-3.0842493	gái	-0.05628874
-3.2272298	bắt	-0.05628874
-3.518694	cóc	-0.056288708
-3.518694	vệ	-0.056288708
-3.2272298	kẻ	-0.05628874
-3.2272298	cầm	-0.05628874
-3.518694	hoan	-0.056288708
-3.518694	rựa	-0.056288708
-3.518694	rượt	-0.056288708
-3.2272298	đuổi	-0.05628874
-3.3859854	chém	-0.056288708
-3.3859854	bổ	-0.056288708
-3.0842493	xuống	-0.056288708
-3.518694	sửu	-0.056288708
-3.518694	cồn	-0.056288708
-2.703569	hơn	-0.0804598
-2.9768634	cơ	-0.056288708
-3.3859854	hướng	-0.056288708
-3.2272298	dẫn	-0.05628874
-3.3859854	đích	-0.056288708
-3.0842493	thứ	-0.08671878
-2.9768634	mới	-0.056288708
-3.518694	lâm	-0.056288708
-2.703569	tình	-0.068206124
-3.3859854	trạng	-0.056288708
-3.0842493	mất	-0.056288708
-3.3859854	sao	-0.05628874
-3.518694	chục	-0.056288708
-2.7574885	chết	-0.056288708
-3.3859854	hậu	-0.11944277
-3.0842493	nặng	-0.0804598
-3.518694	nề	-0.056288708
-3.3859854	khán	-0.11944277
-2.5731483	sẽ	-0.056288708
-3.518694	choáng	-0.056288708
-3.518694	ngợp	-0.056288708
-3.3859854	trận	-0.11944277
-3.2272298	đấu	-0.056288708
-3.3859854	lẫn	-0.056288708
-3.518694	dũng	-0.056288708
-2.9768634	quá	-0.0804598
-3.518694	khứ	-0.056288708
-3.518694	phù	-0.056288708
-3.3859854	thủy	-0.056288708
-3.3859854	coi	-0.056288708
-3.3859854	phép	-0.056288708
-3.3859854	thuật	-0.056288708
-3.518694	kênh	-0.05628874
-3.518694	tổng	-0.056288708
-3.518694	họa	-0.056288708
-3.0842493	quyết	-0.08671878
-3.0842493	dễ	-0.056288708
-3.518694	kích	-0.056288708
-3.3859854	cấm	-0.056288708
-3.3859854	đoán	-0.056288708
-3.518694	biểu	-0.056288708
-3.2272298	tượng	-0.056288708
-3.518694	cờ	-0.056288708
-3.518694	phướn	-0.056288708
-3.518694	tộc	-0.056288708
-2.8190641	chính	-0.16527608
-3.3859854	dỡ	-0.11944277
-3.2272298	bỏ	-0.056288708
-2.9768634	việt	-0.056288708
-3.3859854	cường	-0.056288708
-2.703569	vẫn	-0.069550686
-3.518694	kịp	-0.056288708
-3.518694	khép	-0.056288708
-3.518694	đẩy	-0.056288708
-3.518694	bóng	-0.056288708
-3.2272298	giải	-0.05628874
-3.518694	nguy	-0.056288708
-3.2272298	thanh	-0.05628874
-3.518694	niên	-0.056288708
-3.0842493	chuyện	-0.056288708
-3.2272298	di	-0.35872474
-3.0842493	lái	-0.26125178
-3.3859854	hòa	-0.056288708
-3.518694	kiện	-0.056288708
-3.0842493	khai	-0.056288708
-3.2272298	nạn	-0.056288708
-2.8190641	nhân	-0.07341543
-3.2272298	dụ	-0.09735512
-3.3859854	hộ	-0.05628874
-2.703569	y	-0.056288708
-3.518694	khánh	-0.056288708
-3.518694	xốc	-0.056288708
-3.518694	nách	-0.056288708
-3.3859854	chị	-0.056288708
-3.518694	loan	-0.056288708
-2.890836	kéo	-0.0763367
-3.518694	giật	-0.056288708
-3.518694	lùi	-0.056288708
-3.0842493	phía	-0.056288708
-3.518694	tường	-0.056288708
-3.0842493	đỏ	-0.056288708
-3.518694	đen	-0.056288708
-3.3859854	australia	-0.056288708
-3.518694	dư	-0.056288708
-3.518694	luận	-0.056288708
-3.518694	lôi	-0.056288708
-2.890836	thủ	-0.056288708
-3.2272298	sa	-0.05628874
-3.518694	ngã	-0.056288708
-3.3859854	tuần	-0.05628874
-3.2272298	đông	-0.05628874
-3.518694	bắc	-0.056288708
-3.3859854	tuyên	-0.056288708
-3.3859854	bố	-0.056288708
-3.0842493	hạt	-0.056288708
-2.9768634	bên	-0.0763367
-3.518694	cạnh	-0.056288708
-3.0842493	vị	-0.056288708
-3.3859854	khử	-0.056288708
-3.518694	huy	-0.056288708
-3.3859854	quyến	-0.11944277
-3.3859854	rũ	-0.05628874
-3.3859854	gợi	-0.056288708
-2.890836	cảm	-0.09735512
-3.518694	mong	-0.056288708
-3.3859854	ẩn	-0.056288708
-3.0842493	chim	-0.056288708
-3.2272298	chuyển	-0.09735512
-3.3859854	sang	-0.056288708
-3.518694	dẻ	-0.056288708
-2.9768634	tuổi	-0.056288708
-3.2272298	thơ	-0.05628874
-3.518694	khu	-0.056288708
-3.3859854	ấn	-0.056288708
-3.518694	độ	-0.056288708
-3.2272298	sợ	-0.09735512
-3.518694	nhột	-0.056288708
-3.2272298	tính	-0.05628874
-3.2272298	bước	-0.05628874
-3.2272298	đau	-0.09735512
-3.518694	háng	-0.056288708
-3.2272298	ngoài	-0.056288708
-3.3859854	sắc	-0.056288708
-3.3859854	thái	-0.056288708
-2.9768634	hoàn	-0.2117927
-3.0842493	đoạn	-0.056288708
-2.890836	câu	-0.05628874
-3.3859854	hò	-0.056288708
-3.2272298	bờ	-0.05628874
-3.518694	hiền	-0.056288708
-3.3859854	lương	-0.056288708
-3.518694	khấu	-0.056288708
-3.3859854	lăn	-0.11944277
-3.2272298	dấu	-0.08671878
-3.3859854	ngón	-0.056288708
-2.9768634	tay	-0.0763367
-3.518694	lượt	-0.056288708
-3.2272298	từng	-0.05628874
-2.9768634	số	-0.056288708
-3.3859854	buông	-0.056288708
-3.518694	tha	-0.056288708
-3.518694	đào	-0.056288708
-3.3859854	mỏ	-0.056288708
-3.518694	níu	-0.056288708
-3.518694	khủng	-0.056288708
-3.518694	hoảng	-0.056288708
-2.890836	thiếu	-0.05628874
-3.518694	vắng	-0.056288708
-3.2272298	triển	-0.056288708
-3.518694	lãm	-0.056288708
-3.2272298	giới	-0.0763367
-3.518694	vẻ	-0.056288708
-2.9768634	đẹp	-0.2117927
-3.518694	mô	-0.056288708
-3.518694	chăn	-0.056288708
-3.518694	nuôi	-0.056288708
-3.518694	vâng	-0.056288708
-3.518694	bếp	-0.056288708
-3.518694	giành	-0.056288708
-3.3859854	a	-0.056288708
-3.0842493	bất	-0.26125178
-3.518694	tỉnh	-0.056288708
-3.3859854	tấn	-0.056288708
-3.518694	hát	-0.056288708
-3.518694	nhục	-0.056288708
-3.518694	mạ	-0.056288708
-3.3859854	hoa	-0.056288708
-3.3859854	môi	-0.056288708
-2.9768634	nữ	-0.056288708
-3.518694	thai	-0.056288708
-3.3859854	đức	-0.056288708
-3.3859854	bây	-0.11944277
-3.0842493	giờ	-0.05628874
-3.518694	tránh	-0.056288708
-3.2272298	biện	-0.35872474
-3.518694	đẻ	-0.056288708
-3.3859854	thuận	-0.056288708
-3.3859854	lợi	-0.11944277
-3.3859854	nhập	-0.056288708
-3.2272298	chia	-0.05628874
-3.3859854	sẻ	-0.056288708
-3.3859854	phí	-0.056288708
-3.2272298	dịch	-0.09735512
-3.0842493	thi	-0.056288708
-3.2272298	giao	-0.05628874
-3.0842493	xác	-0.056288708
-3.518694	phân	-0.056288708
-3.518694	hủy	-0.056288708
-3.518694	hiếu	-0.056288708
-3.2272298	kỳ	-0.05628874
-3.518694	đứng	-0.056288708
-3.518694	nghẹt	-0.056288708
-3.0842493	hồ	-0.056288708
-3.0842493	xem	-0.056288708
-3.3859854	gây	-0.056288708
-3.518694	ách	-0.056288708
-3.518694	tắc	-0.056288708
-3.518694	nghiêm	-0.056288708
-3.518694	trọng	-0.056288708
-3.518694	mãi	-0.056288708
-3.0842493	tới	-0.056288708
-3.3859854	tối	-0.056288708
-3.518694	hết|0.0333695-8.03094	-0.056288708
-3.2272298	tốt	-0.05628874
-3.518694	lo	-0.056288708
-3.518694	ế	-0.056288708
-3.0842493	gầy	-0.08671878
-3.518694	gò	-0.056288708
-3.518694	cúi	-0.056288708
-3.518694	gằm	-0.056288708
-3.2272298	bàn	-0.09735512
-3.518694	phức	-0.056288708
-3.518694	tạp	-0.056288708
-3.518694	thìa	-0.056288708
-3.3859854	lông	-0.056288708
-3.2272298	chân	-0.09735512
-3.518694	xẻng	-0.056288708
-3.518694	nhú	-0.056288708
-3.0842493	cắt	-0.056288708
-3.518694	ngọn	-0.056288708
-3.518694	nếu	-0.056288708
-2.5371308	đi	-0.06542678
-3.2272298	vai	-0.05628874
-3.518694	khẳng	-0.056288708
-3.518694	ốc	-0.056288708
-3.3859854	tây	-0.056288708
-3.3859854	hỏi	-0.056288708
-3.0842493	hoặc	-0.056288708
-3.518694	nhìn	-0.056288708
-3.3859854	bạch	-0.056288708
-3.0842493	thị	-0.08671878
-3.0842493	nguyễn	-0.26125178
-3.518694	tràng	-0.056288708
-3.518694	nghịt	-0.056288708
-2.9768634	khách	-0.0763367
-3.2272298	an	-0.056288708
-3.3859854	đứt	-0.11944277
-3.3859854	lìa	-0.05628874
-3.2272298	cánh	-0.09735512
-3.3859854	chắc	-0.056288708
-3.3859854	to	-0.056288708
-3.3859854	đằng	-0.056288708
-3.518694	bart	-0.056288708
-3.0842493	rất	-0.056288708
-3.2272298	bình	-0.05628874
-3.0842493	thường	-0.056288708
-3.3859854	trai	-0.056288708
-2.9768634	ngoại	-0.0804598
-3.518694	ạ	-0.056288708
-2.7574885	tại	-0.056288708
-3.518694	buổi	-0.056288708
-3.3859854	lễ	-0.056288708
-3.518694	tùy	-0.056288708
-3.518694	chọn	-0.056288708
-3.518694	lựa	-0.056288708
-3.518694	may	-0.056288708
-3.518694	mắn	-0.056288708
-3.518694	xảy	-0.056288708
-3.518694	đứa	-0.056288708
-3.0842493	mừng	-0.056288708
-3.518694	quýnh	-0.056288708
-3.518694	ngằn	-0.056288708
-3.518694	ngặt	-0.056288708
-3.518694	ngoay	-0.056288708
-3.2272298	bầu	-0.05628874
-3.518694	sữa	-0.056288708
-3.2272298	khô	-0.05628874
-3.518694	kiệt	-0.056288708
-3.518694	dăn	-0.056288708
-3.518694	deo	-0.056288708
-3.3859854	cha	-0.056288708
-3.3859854	lai	-0.056288708
-3.518694	nghề	-0.056288708
-3.518694	đò	-0.056288708
-3.518694	tuyến	-0.056288708
-3.518694	sài	-0.056288708
-3.518694	gòn	-0.056288708
-3.518694	ơleiku	-0.056288708
-3.518694	dưới	-0.056288708
-3.2272298	cong	-0.05628874
-3.3859854	duỗi	-0.056288708
-3.3859854	ho	-0.056288708
-3.518694	họng	-0.056288708
-3.518694	sửa	-0.056288708
-3.518694	giọng	-0.056288708
-2.890836	nhỏ	-0.05628874
-3.2272298	phong	-0.05628874
-3.518694	đầy	-0.056288708
-3.518694	nhàng	-0.056288708
-3.3859854	rực	-0.056288708
-3.3859854	rỡ	-0.056288708
-3.518694	triệt	-0.056288708
-3.518694	ì	-0.056288708
-3.0842493	cứ	-0.056288708
-3.518694	so	-0.056288708
-3.3859854	luống	-0.11944277
-3.518694	cải	-0.056288708
-3.518694	trồng	-0.056288708
-3.3859854	phương	-0.056288708
-3.3859854	thông	-0.056288708
-3.3859854	bắp	-0.056288708
-3.0842493	gọi	-0.056288708
-3.518694	rau	-0.056288708
-3.518694	cuộn	-0.056288708
-3.518694	mởn	-0.056288708
-3.518694	hiệu	-0.056288708
-2.890836	bệnh	-0.0763367
-3.518694	chăm	-0.056288708
-3.518694	sóc	-0.056288708
-3.518694	khỏe	-0.056288708
-3.0842493	càng	-0.056288708
-3.518694	nở	-0.056288708
-3.3859854	rộ	-0.056288708
-3.0842493	già	-0.056288708
-2.8190641	chúng	-0.21939903
-3.518694	khăn	-0.056288708
-3.3859854	vẹt	-0.056288708
-3.518694	màu	-0.056288708
-3.518694	đực	-0.056288708
-3.518694	biếc	-0.056288708
-3.3859854	văn	-0.056288708
-3.3859854	tử	-0.11944277
-3.3859854	hỗ	-0.11944277
-3.3859854	trợ	-0.056288708
-3.518694	tội	-0.056288708
-3.518694	phạm	-0.056288708
-3.0842493	mười	-0.056288708
-3.2272298	tháng	-0.05628874
-3.3859854	xã	-0.056288708
-3.518694	cẩm	-0.056288708
-3.518694	trạch	-0.056288708
-3.2272298	huyện	-0.05628874
-3.2272298	thần	-0.05628874
-3.518694	cẩu	-0.056288708
-3.518694	khống	-0.056288708
-3.0842493	chế	-0.056288708
-3.518694	cướp	-0.056288708
-3.3859854	tiến	-0.056288708
-3.2272298	sĩ	-0.056288708
-3.518694	thừa	-0.056288708
-3.0842493	nhận	-0.056288708
-3.2272298	tăng	-0.05628874
-3.0842493	cao	-0.056288708
-3.518694	ắt	-0.056288708
-3.518694	vạ	-0.056288708
-3.518694	lây	-0.056288708
-3.2272298	tem	-0.05628874
-3.518694	in	-0.056288708
-3.2272298	thật	-0.05628874
-3.518694	thẻ	-0.056288708
-3.3859854	nhựa	-0.056288708
-3.2272298	báo	-0.05628874
-3.518694	ôi	-0.056288708
-3.518694	thiu	-0.056288708
-3.0842493	dự	-0.26125178
-3.2272298	án	-0.056288708
-3.3859854	thôn	-0.05628874
-3.518694	giai	-0.056288708
-3.3859854	sử	-0.11944277
-3.2272298	vốn	-0.05628874
-3.3859854	ngân	-0.056288708
-3.518694	đợt	-0.056288708
-3.518694	phun	-0.056288708
-3.518694	trào	-0.056288708
-3.518694	núi	-0.056288708
-3.3859854	kiểu	-0.056288708
-3.3859854	tầm	-0.056288708
-3.518694	chạy	-0.056288708
-3.2272298	quan	-0.09735512
-3.518694	chích	-0.056288708
-3.3859854	ngừa	-0.056288708
-3.518694	dẫu	-0.056288708
-3.2272298	vết	-0.05628874
-3.518694	cắn	-0.056288708
-3.518694	mủ	-0.056288708
-3.518694	trắng	-0.056288708
-3.518694	loãng	-0.056288708
-3.518694	thốn	-0.056288708
-3.518694	bủa	-0.056288708
-3.518694	vây	-0.056288708
-3.3859854	tứ	-0.056288708
-3.518694	bề	-0.056288708
-3.3859854	khiến	-0.05628874
-3.518694	phận	-0.056288708
-3.518694	khốn	-0.056288708
-3.518694	bó	-0.056288708
-3.518694	buộc	-0.056288708
-3.3859854	ứng	-0.056288708
-3.518694	đình	-0.056288708
-3.3859854	trời	-0.11944277
-3.518694	lũ	-0.056288708
-3.518694	mã	-0.056288708
-3.518694	thèm	-0.056288708
-3.3859854	nhãn	-0.056288708
-3.518694	nữa	-0.056288708
-3.518694	cộng	-0.056288708
-3.518694	kinh	-0.056288708
-3.3859854	hoàng	-0.056288708
-3.0842493	chứng	-0.056288708
-3.3859854	kiến	-0.056288708
-3.518694	Brown	-0.056288708
-3.518694	bơi	-0.056288708
-3.518694	hạng	-0.056288708
-2.9768634	lên	-0.056288708
-3.518694	đinh	-0.056288708
-3.518694	tai	-0.056288708
-3.518694	thổi	-0.056288708
-3.518694	cụ	-0.056288708
-3.518694	lò	-0.056288708
-3.518694	gạch	-0.056288708
-3.518694	vương	-0.056288708
-3.3859854	chức	-0.09735512
-3.3859854	làng	-0.056288708
-3.518694	thảo	-0.056288708
-3.518694	thánh	-0.056288708
-3.518694	nhễ	-0.056288708
-3.518694	nhại	-0.056288708
-3.518694	mồ	-0.056288708
-3.518694	hôi	-0.056288708
-3.3859854	trông	-0.056288708
-3.3859854	ngăn	-0.056288708
-3.2272298	ung	-0.09735512
-2.9768634	ai	-0.056288708
-3.518694	oán	-0.056288708
-3.3859854	u	-0.056288708
-3.518694	sầu	-0.056288708
-3.518694	tươi	-0.056288708
-3.518694	quân	-0.056288708
-2.9768634	đội	-0.0804598
-3.2272298	tự	-0.35872474
-3.518694	khiển	-0.056288708
-3.3859854	áo	-0.056288708
-3.518694	thao	-0.056288708
-3.3859854	dáng	-0.056288708
-3.518694	lửng	-0.056288708
-3.0842493	đổi	-0.08671878
-3.3859854	ngôi	-0.09735512
-3.518694	vợt	-0.056288708
-3.2272298	lão	-0.05628874
-3.518694	nhoài	-0.056288708
-3.518694	còm	-0.056288708
-3.518694	xương	-0.056288708
-3.3859854	bảng	-0.11944277
-3.0842493	e	-0.0804598
-3.518694	trở	-0.056288708
-2.9768634	vô	-0.2117927
-3.518694	bấp	-0.056288708
-3.518694	bênh	-0.056288708
-3.2272298	bản	-0.05628874
-3.3859854	xuất	-0.05628874
-3.3859854	thiên	-0.056288708
-3.518694	hộp	-0.056288708
-3.518694	sọ	-0.056288708
-3.3859854	não	-0.056288708
-3.518694	răng	-0.056288708
-3.2272298	vui	-0.09735512
-3.518694	bữa	-0.056288708
-3.518694	bác	-0.056288708
-3.518694	tế	-0.056288708
-3.518694	bè	-0.056288708
-3.518694	giang	-0.056288708
-3.518694	tổ	-0.056288708
-3.3859854	tham	-0.05628874
-3.2272298	ô	-0.05628874
-3.3859854	nghĩ	-0.056288708
-3.2272298	ổn	-0.09735512
-3.3859854	long	-0.056288708
-3.3859854	lấy	-0.056288708
-3.518694	yên	-0.056288708
-3.3859854	mẽ	-0.056288708
-3.518694	lạ	-0.056288708
-3.518694	song	-0.056288708
-3.3859854	vứt	-0.056288708
-3.3859854	khá	-0.056288708
-3.3859854	tỏ	-0.11944277
-3.518694	tách	-0.056288708
-3.518694	áp	-0.056288708
-3.518694	bợm	-0.056288708
-3.518694	chừa	-0.056288708
-3.518694	sưa	-0.056288708
-3.518694	nhồi	-0.056288708
-3.518694	máu	-0.056288708
-3.518694	tim	-0.056288708
-3.518694	bách	-0.056288708
-2.9768634	cổ	-0.2117927
-3.518694	phiếu	-0.056288708
-3.518694	thùng	-0.056288708
-3.518694	pin	-0.056288708
-3.518694	sạc	-0.056288708
-3.518694	thoát	-0.056288708
-3.518694	gửi	-0.056288708
-3.518694	tin	-0.056288708
-3.518694	nhắn	-0.056288708
-3.0842493	nhanh	-0.056288708
-3.518694	kiểm	-0.056288708
-3.0842493	sát	-0.056288708
-3.2272298	phê	-0.05628874
-3.3859854	chuẩn	-0.056288708
-3.518694	mày	-0.056288708
-3.518694	rướn	-0.056288708
-3.3859854	can	-0.056288708
-3.518694	thiệp	-0.056288708
-3.518694	vay	-0.056288708
-3.518694	lãi	-0.056288708
-3.518694	suất	-0.056288708
-3.518694	đãi	-0.056288708
-3.3859854	mía	-0.05628874
-3.2272298	biến	-0.05628874
-3.0842493	chiều	-0.056288708
-3.3859854	yếu	-0.11944277
-3.3859854	tố	-0.05628874
-3.0842493	chiến	-0.11944277
-3.3859854	thắng	-0.056288708
-3.518694	thờ	-0.056288708
-3.518694	ơ	-0.056288708
-3.3859854	chơi	-0.056288708
-3.518694	bowling	-0.056288708
-3.518694	chứ	-0.056288708
-3.518694	ngô	-0.056288708
-3.518694	khoán	-0.056288708
-3.518694	buýt	-0.056288708
-3.518694	nhầm	-0.056288708
-3.0842493	giữa	-0.056288708
-3.518694	nụ	-0.056288708
-3.3859854	cười	-0.05628874
-3.3859854	ngượng	-0.056288708
-3.518694	nghịu	-0.056288708
-3.518694	hạnh	-0.056288708
-3.3859854	phúc	-0.056288708
-3.518694	kè	-0.056288708
-3.3859854	sắt	-0.056288708
-3.2272298	trái	-0.05628874
-3.3859854	tranh	-0.05628874
-3.3859854	liên	-0.056288708
-3.518694	miên	-0.056288708
-3.3859854	suốt	-0.056288708
-3.3859854	ấu	-0.056288708
-3.3859854	lừa	-0.056288708
-3.518694	lan	-0.056288708
-3.518694	ong	-0.056288708
-3.518694	cày	-0.056288708
-3.3859854	đậu	-0.056288708
-3.518694	hãy	-0.05628874
-3.518694	ngồi	-0.056288708
-3.518694	ghi	-0.056288708
-3.518694	chép	-0.056288708
-3.518694	hồi	-0.056288708
-3.518694	tột	-0.056288708
-3.518694	đỉnh	-0.056288708
-3.518694	sướng	-0.056288708
-3.518694	đáng	-0.056288708
-3.3859854	buồn	-0.056288708
-3.3859854	xế	-0.056288708
-3.518694	dỗ	-0.056288708
-3.518694	rửa	-0.056288708
-3.2272298	nam	-0.05628874
-3.518694	lưỡi	-0.056288708
-3.518694	mòn	-0.056288708
-3.518694	rối	-0.056288708
-3.518694	rơi	-0.056288708
-3.518694	rụng	-0.056288708
-3.518694	nhiệm	-0.056288708
-3.518694	phó	-0.056288708
-3.3859854	mạnh	-0.056288708
-3.2272298	hải	-0.05628874
-3.518694	thoải	-0.056288708
-3.518694	mái	-0.056288708
-3.3859854	lối	-0.056288708
-3.0842493	viên	-0.0804598
-3.3859854	thoa	-0.056288708
-3.2272298	kem	-0.05628874
-3.518694	đủ	-0.056288708
-3.518694	lấp	-0.056288708
-3.3859854	đốm	-0.056288708
-3.518694	nâu	-0.056288708
-3.518694	mụn	-0.056288708
-3.2272298	xấu	-0.09735512
-3.518694	xí	-0.056288708
-3.518694	diễu	-0.056288708
-3.518694	binh	-0.056288708
-3.3859854	thọ	-0.056288708
-3.518694	vua	-0.056288708
-3.518694	thùy	-0.056288708
-3.3859854	dung	-0.05628874
-3.518694	tít	-0.056288708
-3.518694	mai	-0.056288708
-3.518694	thúy	-0.056288708
-3.518694	rạng	-0.056288708
-3.518694	phản	-0.056288708
-3.518694	ngôn	-0.056288708
-3.518694	ngữ	-0.056288708
-3.518694	chấp	-0.056288708
-3.3859854	đạt	-0.056288708
-3.518694	nảy	-0.056288708
-3.518694	mâu	-0.056288708
-3.518694	thuẫn	-0.056288708
-3.518694	nhịp	-0.056288708
-3.518694	nắng	-0.056288708
-3.518694	thẹo	-0.056288708
-3.2272298	ngủ	-0.05628874
-3.518694	cà	-0.056288708
-3.518694	rum	-0.056288708
-3.518694	sai	-0.056288708
-3.518694	lính	-0.056288708
-3.518694	hô	-0.056288708
-3.518694	úp	-0.056288708
-3.518694	tú	-0.056288708
-3.3859854	cũ	-0.056288708
-3.518694	mú	-0.056288708
-3.518694	sốc	-0.056288708
-3.518694	hãng	-0.056288708
-3.518694	thập	-0.056288708
-3.518694	kỷ	-0.056288708
-3.518694	bão	-0.056288708
-3.518694	mức	-0.056288708
-3.518694	ngoái	-0.056288708
-3.518694	xách	-0.056288708
-3.518694	kia	-0.056288708
-3.3859854	tỷ	-0.056288708
-3.518694	mầm	-0.056288708
-3.518694	non	-0.056288708
-3.518694	hi	-0.056288708
-3.518694	vọng	-0.056288708
-3.2272298	đợi	-0.05628874
-3.518694	lộp	-0.056288708
-3.518694	rộp	-0.056288708
-3.518694	gieo	-0.056288708
-3.518694	vần	-0.056288708
-3.518694	hưng	-0.056288708
-3.518694	phấn	-0.056288708
-3.3859854	mây	-0.056288708
-3.518694	đảm	-0.056288708
-3.518694	bền	-0.056288708
-3.3859854	vững	-0.056288708
-3.518694	ủy	-0.056288708
-3.518694	bài	-0.056288708
-3.518694	tre	-0.056288708
-3.518694	lào	-0.056288708
-3.3859854	nhóm	-0.11944277
-3.2272298	chút	-0.056288708
-3.518694	kịch	-0.056288708
-3.518694	tốc	-0.056288708
-3.518694	phanh	-0.056288708
-3.518694	phui	-0.056288708
-3.518694	nhũng	-0.056288708
-3.518694	hài	-0.056288708
-3.3859854	đoàn	-0.056288708
-3.518694	tống	-0.056288708
-3.518694	rởm	-0.056288708
-3.518694	van	-0.056288708
-3.3859854	thay	-0.056288708
-3.3859854	lá	-0.056288708
-3.518694	phay	-0.056288708
-3.518694	gánh	-0.056288708
-3.518694	rầm	-0.056288708
-3.518694	đô	-0.056288708
-3.3859854	vận	-0.11944277
-3.518694	đập	-0.056288708
-3.518694	thoi	-0.056288708
-3.518694	nua	-0.056288708
-3.518694	đắt	-0.056288708
-3.518694	mỡ	-0.056288708
-3.518694	sơ	-0.056288708
-3.3859854	khoa	-0.11944277
-3.518694	tục	-0.056288708
-3.3859854	miễn	-0.11944277
-3.518694	êm	-0.056288708
-3.3859854	vi	-0.056288708
-3.3859854	vật	-0.056288708
-3.3859854	ích	-0.056288708
-3.518694	ức	-0.056288708
-3.518694	loài	-0.056288708
-3.518694	nấm	-0.056288708
-3.518694	rễ	-0.056288708
-3.2272298	lỗi	-0.05628874
-3.518694	lân	-0.056288708
-3.518694	la	-0.056288708
-3.518694	sạp	-0.056288708
-3.518694	phung	-0.056288708
-3.518694	cắp	-0.056288708
-3.518694	khoản	-0.056288708
-3.518694	chín	-0.056288708
-3.518694	nhung	-0.056288708
-3.518694	nghịch	-0.056288708
-3.518694	ác	-0.056288708
-3.518694	Bush	-0.056288708
-3.518694	ả	-0.056288708
-3.518694	rập	-0.056288708
-3.518694	xóa	-0.056288708
-3.518694	hoài	-0.056288708
-3.518694	gởi	-0.056288708
-3.518694	bưu	-0.056288708
-3.518694	thiếp	-0.056288708
-3.3859854	bush	-0.056288708
-3.518694	Yết	-0.056288708
-3.518694	Kiêu	-0.056288708
-3.518694	nghèo	-0.056288708
-3.518694	vùng	-0.056288708
-3.3859854	mỗi	-0.056288708
-3.518694	đọng	-0.056288708
-3.3859854	bằng	-0.056288708
-3.518694	đục	-0.056288708
-3.518694	cát	-0.056288708
-3.518694	sỏi	-0.056288708
-3.518694	cám	-0.056288708
-3.518694	ơn	-0.056288708
-3.518694	quí	-0.056288708
-3.518694	bỏng	-0.056288708
-3.518694	tảo	-0.056288708
-3.518694	bùng	-0.056288708
-3.518694	xuân	-0.056288708
-3.518694	lao	-0.056288708
-3.518694	khoảng	-0.056288708
-3.518694	mấy	-0.056288708
-3.518694	hổ	-0.056288708
-3.518694	rừng	-0.056288708
-3.518694	đem	-0.056288708
-3.518694	chiếu	-0.056288708
-3.518694	gốc	-0.056288708
-3.2272298	dừa	-0.05628874
-3.3859854	tám	-0.056288708
-3.518694	ngỏ	-0.056288708
-3.3859854	ngụ	-0.056288708
-3.518694	phường	-0.056288708
-3.518694	thiệt	-0.056288708
-3.518694	hại	-0.056288708
-3.3859854	ớn	-0.056288708
-3.518694	dần	-0.056288708
-3.3859854	thuế	-0.056288708
-3.518694	trị	-0.056288708
-3.3859854	giấy	-0.056288708
-3.518694	tần	-0.056288708
-3.518694	thấp	-0.056288708
-3.518694	xét	-0.056288708
-3.3859854	đảo	-0.056288708
-3.518694	ngắt	-0.056288708
-3.518694	tinh	-0.056288708
-3.3859854	trả	-0.056288708
-3.518694	nhạt	-0.056288708
-3.518694	nhẽo	-0.056288708
-3.3859854	hạn	-0.056288708
-3.518694	bẽ	-0.056288708
-3.518694	dữ	-0.056288708
-3.518694	thậm	-0.056288708
-3.518694	lãnh	-0.056288708
-3.518694	cú	-0.056288708
-3.518694	đấm	-0.056288708
-3.3859854	đại	-0.056288708
-3.518694	gồm	-0.056288708
-3.518694	ước	-0.056288708
-3.518694	mơ	-0.056288708
-3.3859854	đua	-0.056288708
-3.518694	uốn	-0.056288708
-3.518694	gọt	-0.056288708
-3.518694	hiệp	-0.056288708
-3.518694	liệu	-0.056288708
-3.3859854	doanh	-0.056288708
-3.518694	ngọc	-0.056288708
-3.518694	vỏ	-0.056288708
-3.518694	bọc	-0.056288708
-3.518694	xứng	-0.056288708
-3.518694	tuyển	-0.056288708
-3.518694	sương	-0.056288708
-3.518694	mù	-0.056288708
-3.3859854	phút	-0.056288708
-3.518694	sớm	-0.056288708
-3.518694	tiết	-0.056288708
-3.518694	push	-0.056288708
-3.518694	nhịu	-0.056288708
-3.518694	hảo	-0.056288708
-3.518694	chàng	-0.056288708
-3.518694	nhảy	-0.056288708
-3.518694	giày	-0.056288708
-3.518694	gót	-0.056288708
-3.3859854	thẳng	-0.056288708
-3.518694	vòng	-0.056288708
-3.2272298	cuộc	-0.05628874
-3.518694	trùng	-0.056288708
-3.518694	chào	-0.056288708
-3.518694	unicity	-0.056288708
-3.518694	starter	-0.056288708
-3.518694	chúc	-0.056288708
-3.518694	oằn	-0.056288708
-3.518694	đất	-0.056288708
-3.3859854	kền	-0.056288708
-3.3859854	gà	-0.056288708
-3.3859854	nổi	-0.11944277
-3.518694	trọc	-0.056288708
-3.518694	đùng	-0.056288708
-3.518694	ửng	-0.056288708
-3.3859854	ồ	-0.056288708
-3.3859854	xin	-0.056288708
-3.3859854	trượt	-0.11944277
-3.518694	tuyết	-0.056288708
-3.518694	gói	-0.056288708
-3.518694	du	-0.056288708
-3.518694	lịch	-0.056288708
-3.518694	khiếp	-0.056288708
-3.518694	trinh	-0.056288708
-3.518694	dõi	-0.056288708
-3.518694	sống	-0.056288708
-3.518694	tương	-0.056288708
-3.518694	ổ	-0.056288708
-3.518694	rỗ	-0.056288708
-3.518694	bê	-0.056288708
-3.518694	tông	-0.056288708
-3.3859854	đè	-0.056288708
-3.518694	chỗ	-0.056288708
-3.518694	dập	-0.056288708
-3.518694	bàng	-0.056288708
-3.518694	quang	-0.056288708
-3.518694	riêng	-0.056288708
-3.518694	hứa	-0.056288708
-3.518694	truy	-0.056288708
-3.518694	giác	-0.056288708
-3.518694	nhức	-0.056288708
-3.518694	mỏi	-0.056288708
-3.518694	dè	-0.056288708
-3.518694	ti	-0.056288708
-3.518694	xen	-0.056288708
-3.3859854	nơi	-0.056288708
-3.518694	kẹo	-0.056288708
-3.518694	bèo	-0.056288708
-3.518694	chang	-0.056288708
-3.518694	nhát	-0.056288708
-3.518694	dao	-0.056288708
-3.518694	ngắn	-0.056288708
-3.518694	cỗ	-0.056288708
-3.518694	decor	-0.056288708
-3.518694	phan	-0.056288708
-3.3859854	đóng	-0.056288708
-3.518694	phim	-0.056288708
-3.518694	đà	-0.056288708
-3.518694	lạt	-0.056288708
-3.518694	thuê	-0.056288708
-3.518694	pháo	-0.056288708
-3.518694	đài	-0.056288708
-3.3859854	ngõ	-0.056288708
-3.518694	cập	-0.056288708
-3.518694	chất	-0.056288708
-3.518694	ạt	-0.056288708
-3.518694	tháo	-0.056288708
-3.518694	sủa	-0.056288708
-3.518694	inh	-0.056288708
-3.518694	ỏi	-0.056288708
-3.518694	đàn	-0.056288708
-3.518694	phiên	-0.056288708
-3.518694	tòa	-0.056288708
-3.518694	thẩm	-0.056288708
-3.518694	ngãi	-0.056288708
-3.518694	triệu	-0.056288708
-3.518694	cháu	-0.056288708
-3.518694	lĩnh	-0.056288708
-3.518694	võ	-0.056288708
-3.518694	yểm	-0.056288708
-3.3859854	bò	-0.056288708
-3.518694	khổng	-0.056288708
-3.518694	lồ	-0.056288708
-3.518694	audi	-0.056288708
-3.518694	q5	-0.056288708
-3.518694	sáu	-0.056288708
-3.518694	diện	-0.056288708
-3.518694	trộm	-0.056288708
-3.518694	lệch	-0.056288708
-3.518694	voan	-0.056288708
-3.518694	bổng	-0.056288708
-3.518694	rủ	-0.056288708
-3.518694	sung	-0.056288708
-3.518694	nét	-0.056288708
-3.518694	duyên	-0.056288708
-3.518694	khung	-0.056288708
-3.518694	chợ	-0.056288708
-3.518694	ảm	-0.056288708
-3.518694	đạm	-0.056288708
-3.518694	tẻ	-0.056288708
-3.518694	lác	-0.056288708
-3.518694	đác	-0.056288708
-3.518694	dăm	-0.056288708
-3.518694	lexus	-0.056288708
-3.518694	ls	-0.056288708
-3.518694	gục	-0.056288708
-3.518694	va	-0.056288708
-3.518694	chạm	-0.056288708
-3.518694	sắm	-0.056288708
-3.518694	tô	-0.056288708
-3.518694	gắp	-0.056288708
-3.518694	dĩa	-0.056288708
-3.518694	rắc	-0.056288708
-3.518694	xay	-0.056288708
-3.518694	rải	-0.056288708
-3.518694	cọng	-0.056288708
-3.518694	vượt	-0.056288708
-3.518694	vấn	-0.056288708
-3.518694	khớp	-0.056288708
-3.518694	pa	-0.056288708
-3.518694	huyền	-0.056288708
-3.518694	ảo	-0.056288708
-3.518694	muôn	-0.056288708
-3.518694	nẻo	-0.056288708
-3.518694	phở	-0.056288708
-3.518694	lang	-0.056288708
-3.518694	thăng	-0.056288708
-3.3859854	chờ	-0.056288708
-3.518694	kate	-0.056288708
-3.518694	bật	-0.056288708
-3.518694	xi	-0.056288708
-3.518694	nhan	-0.056288708
-3.518694	vạch	-0.056288708
-3.518694	nộp	-0.056288708
-3.518694	phạt	-0.056288708
-3.518694	điêu	-0.056288708
-3.518694	khắc	-0.056288708
-3.518694	vĩ	-0.056288708
-3.518694	út	-0.056288708
-3.518694	nhím	-0.056288708
-3.518694	nhẩu	-0.056288708
-3.3859854	nghiêng	-0.056288708
-3.518694	đôi	-0.056288708
-3.518694	má	-0.056288708
-3.518694	bĩnh	-0.056288708
-3.518694	hẹn	-0.056288708
-3.518694	tướng	-0.056288708
-3.518694	washington	-0.056288708
-3.518694	new	-0.056288708
-3.518694	york	-0.056288708
-3.518694	berlin	-0.056288708
-3.518694	dẹp	-0.056288708
-3.518694	suy	-0.056288708
-3.518694	thiển	-0.056288708
-3.518694	cận	-0.056288708
-3.518694	kỉ	-0.056288708
-3.518694	nhé	-0.056288708
-3.518694	chằng	-0.056288708
-3.518694	chịt	-0.056288708
-3.518694	thép	-0.056288708
-3.518694	gai	-0.056288708
-3.518694	quấn	-0.056288708
-3.518694	thân	-0.056288708
-3.518694	chặn	-0.056288708
-3.518694	leo	-0.056288708
-3.518694	cành	-0.056288708
-3.518694	vn	-0.056288708
-3.518694	index	-0.056288708
-3.518694	trồi	-0.056288708
-3.518694	sụt	-0.056288708
-3.518694	loanh	-0.056288708
-3.518694	quanh	-0.056288708
-3.518694	ngưỡng	-0.056288708
-3.518694	nha	-0.056288708
-3.518694	quỳ	-0.056288708
-3.518694	phẫu	-0.056288708
-3.518694	kiều	-0.056288708
-3.518694	xứ	-0.056288708
-3.518694	xuyên	-0.056288708
-3.518694	nhấn	-0.056288708
-3.518694	nhá	-0.056288708
-3.518694	lọn	-0.056288708
-3.518694	xoăn	-0.056288708
-3.518694	bồng	-0.056288708
-3.518694	bềnh	-0.056288708
-3.518694	Huế	-0.056288708
-3.518694	đỏng	-0.056288708
-3.518694	đảnh	-0.056288708
-3.518694	thịt	-0.056288708
-3.518694	xào	-0.056288708
-3.518694	tỏi	-0.056288708
-3.518694	mộc	-0.056288708
-3.518694	nhĩ	-0.056288708
-3.518694	cháo	-0.056288708
-3.518694	sen	-0.056288708
-3.518694	gan	-0.056288708
-3.518694	lợn	-0.056288708
-3.518694	nấu	-0.056288708

\2-grams:
-0.7683648	anh </s>	0
-1.1456102	tôi </s>	0
-0.93515915	giữ </s>	0
-0.8117809	này </s>	0
-0.7006003	không </s>	0
-1.183754	cô </s>	0
-1.086354	nghi </s>	0
-1.121583	mình </s>	0
-1.2725499	đã </s>	0
-1.2407262	bị </s>	0
-0.93515915	bức </s>	0
-1.0989025	tiên </s>	0
-1.197086	động </s>	0
-0.7523136	mật </s>	0
-0.93515915	hẹp </s>	0
-0.8371037	tiền </s>	0
-1.252442	sau </s>	0
-1.1633917	dài </s>	0
-1.2486597	của </s>	0
-1.1361655	thức </s>	0
-0.87622917	em </s>	0
-0.9789834	ở </s>	0
-1.121583	trường </s>	0
-1.1778291	được </s>	0
-1.2164955	nước </s>	0
-1.0669589	sạch </s>	0
-0.7523136	uống </s>	0
-1.2636809	một </s>	0
-0.7649714	phòng </s>	0
-1.0635717	hàng </s>	0
-1.186434	người </s>	0
-1.0669589	á </s>	0
-1.2043134	đến </s>	0
-1.0669589	nga </s>	0
-1.0261872	việc </s>	0
-1.1385407	cùng </s>	0
-1.3205978	trong </s>	0
-0.91406095	vụ </s>	0
-0.93515915	mẫu </s>	0
-0.7523136	khuya </s>	0
-1.0669589	điện </s>	0
-1.1840796	do </s>	0
-1.2009635	công </s>	0
-1.1385407	giúp </s>	0
-1.121583	cứu </s>	0
-1.2799529	thiết </s>	0
-1.0989025	kế </s>	0
-1.367387	thế </s>	0
-0.91406095	khác </s>	0
-0.8900191	hai </s>	0
-1.2138867	vào </s>	0
-0.7523136	khua </s>	0
-1.3133134	đầu </s>	0
-1.1517081	tư </s>	0
-1.2766145	sức </s>	0
-1.018444	lắng </s>	0
-0.7523136	khuyên </s>	0
-1.121583	năm </s>	0
-1.018444	nay </s>	0
-0.93515915	Mỹ </s>	0
-1.018444	nội </s>	0
-0.9917672	đường </s>	0
-1.018444	nóng </s>	0
-0.7523136	nghiến </s>	0
-1.1840796	còn </s>	0
-1.1385407	lại </s>	0
-0.7523136	giảng </s>	0
-1.121583	chồng </s>	0
-0.7523136	giỡn </s>	0
-1.1728601	nói </s>	0
-1.018444	nhau </s>	0
-1.197086	ra </s>	0
-0.7523136	viễn </s>	0
-1.121583	hội </s>	0
-1.1622328	ngày </s>	0
-1.121583	mẹ </s>	0
-1.17084	con </s>	0
-0.82825595	lòng </s>	0
-1.018444	mưa </s>	0
-1.0989025	phố </s>	0
-1.1361655	dùng </s>	0
-1.1146659	ông </s>	0
-1.2387043	đó </s>	0
-0.7523136	tươm </s>	0
-0.63176596	ba </s>	0
-1.0251727	sản </s>	0
-1.1622328	xe </s>	0
-0.93515915	khóc </s>	0
-1.2316926	yêu </s>	0
-0.7523136	đỡ </s>	0
-1.1517081	về </s>	0
-1.236138	ăn </s>	0
-0.7523136	afghanistan </s>	0
-1.018444	đèn </s>	0
-0.9917672	định </s>	0
-0.42733145	ấy </s>	0
-1.121583	vậy </s>	0
-1.1385407	lớn </s>	0
-0.93515915	túy </s>	0
-0.93515915	lửa </s>	0
-0.7523136	âu </s>	0
-1.018444	xanh </s>	0
-0.93515915	cử </s>	0
-0.7523136	vời </s>	0
-1.2007717	hệ </s>	0
-0.7523136	ngầm </s>	0
-1.1385407	đồng </s>	0
-1.1728601	sự </s>	0
-0.7523136	lịa </s>	0
-0.82825595	đánh </s>	0
-0.87622917	thấy </s>	0
-0.59220076	gì </s>	0
-0.93515915	bà </s>	0
-0.7523136	móc </s>	0
-1.018444	chi </s>	0
-1.2085531	nhiều </s>	0
-1.1633917	quốc </s>	0
-0.7523136	mến </s>	0
-0.7523136	mệnh </s>	0
-0.6764817	giảm </s>	0
-1.1517081	giá </s>	0
-0.93515915	vang </s>	0
-1.1517081	cần </s>	0
-0.7523136	hào </s>	0
-0.57242095	nào </s>	0
-0.93515915	giận </s>	0
-1.0989025	mỹ </s>	0
-1.018444	nhiêu </s>	0
-1.121583	gái </s>	0
-1.0989025	xuống </s>	0
-0.7523136	sửu </s>	0
-0.9981957	hơn </s>	0
-0.93515915	đích </s>	0
-1.0989025	mới </s>	0
-1.0989025	mất </s>	0
-1.018444	sao </s>	0
-1.0669589	đấu </s>	0
-0.93515915	thuật </s>	0
-0.7523136	họa </s>	0
-0.93515915	đoán </s>	0
-1.0669589	tượng </s>	0
-1.0669589	bỏ </s>	0
-1.0989025	việt </s>	0
-1.018444	giải </s>	0
-0.7523136	nguy </s>	0
-1.018444	thanh </s>	0
-0.93515915	hòa </s>	0
-0.93515915	kiện </s>	0
-1.0989025	khai </s>	0
-1.0669589	nạn </s>	0
-0.91406095	nhân </s>	0
-1.018444	hộ </s>	0
-1.1622328	y </s>	0
-1.1361655	kéo </s>	0
-0.93515915	australia </s>	0
-0.93515915	ẩn </s>	0
-1.0669589	chim </s>	0
-0.7523136	dẻ </s>	0
-1.0989025	tuổi </s>	0
-0.93515915	ấn </s>	0
-0.7523136	độ </s>	0
-1.018444	tính </s>	0
-0.7523136	háng </s>	0
-1.1517081	ngoài </s>	0
-0.93515915	thái </s>	0
-1.121583	câu </s>	0
-0.93515915	ngón </s>	0
-0.87622917	tay </s>	0
-0.87622917	giới </s>	0
-0.42482173	đẹp </s>	0
-1.1517081	nữ </s>	0
-0.93515915	đức </s>	0
-1.121583	giờ </s>	0
-0.5401813	lợi </s>	0
-0.93515915	nhập </s>	0
-1.0416722	dịch </s>	0
-1.0669589	tới </s>	0
-0.7523136	hết|0.0333695-8.03094 </s>	0
-1.018444	tốt </s>	0
-0.7523136	ế </s>	0
-0.6764817	bàn </s>	0
-0.7523136	xẻng </s>	0
-0.93515915	tây </s>	0
-0.93515915	bạch </s>	0
-1.1361655	khách </s>	0
-1.0669589	an </s>	0
-0.93515915	chắc </s>	0
-1.0669589	thường </s>	0
-0.7523136	ạ </s>	0
-0.93515915	lai </s>	0
-0.7523136	ơleiku </s>	0
-0.93515915	duỗi </s>	0
-0.93515915	ho </s>	0
-0.93515915	họng </s>	0
-1.121583	nhỏ </s>	0
-0.7523136	nhàng </s>	0
-0.87622917	bệnh </s>	0
-1.0989025	khỏe </s>	0
-0.93515915	rộ </s>	0
-0.7523136	khăn </s>	0
-0.7523136	biếc </s>	0
-0.7523136	lây </s>	0
-1.018444	thật </s>	0
-0.93515915	nhựa </s>	0
-0.7523136	thiu </s>	0
-1.0989025	án </s>	0
-0.7523136	loãng </s>	0
-0.93515915	tứ </s>	0
-0.7523136	buộc </s>	0
-0.5401813	trời </s>	0
-0.7523136	nữa </s>	0
-0.7523136	hạng </s>	0
-0.7523136	thánh </s>	0
-0.93515915	dáng </s>	0
-0.7523136	bênh </s>	0
-1.018444	tham </s>	0
-1.018444	ô </s>	0
-0.7523136	sưa </s>	0
-0.7523136	tim </s>	0
-0.93515915	phiếu </s>	0
-1.0669589	nhanh </s>	0
-0.93515915	chuẩn </s>	0
-0.7523136	rướn </s>	0
-1.018444	tố </s>	0
-0.93515915	thắng </s>	0
-0.7523136	ơ </s>	0
-0.7523136	chứ </s>	0
-0.93515915	phúc </s>	0
-0.7523136	cày </s>	0
-0.93515915	đậu </s>	0
-0.93515915	sướng </s>	0
-0.93515915	xế </s>	0
-0.7523136	rụng </s>	0
-0.82825595	viên </s>	0
-0.7523136	xí </s>	0
-0.7523136	thuẫn </s>	0
-1.018444	ngủ </s>	0
-0.7523136	ngoái </s>	0
-0.93515915	tỷ </s>	0
-1.018444	đợi </s>	0
-0.7523136	vần </s>	0
-0.7523136	lào </s>	0
-0.7523136	nhũng </s>	0
-0.7523136	rởm </s>	0
-0.7523136	phay </s>	0
-0.7523136	đô </s>	0
-0.7523136	đắt </s>	0
-0.7523136	mỡ </s>	0
-0.5401813	khoa </s>	0
-0.7523136	rễ </s>	0
-0.7523136	Kiêu </s>	0
-0.7523136	ơn </s>	0
-0.93515915	tám </s>	0
-0.93515915	đảo </s>	0
-0.93515915	đại </s>	0
-0.7523136	mù </s>	0
-0.7523136	sớm </s>	0
-0.7523136	tiết </s>	0
-0.7523136	đất </s>	0
-0.7523136	ửng </s>	0
-0.7523136	decor </s>	0
-0.93515915	đóng </s>	0
-0.7523136	chất </s>	0
-0.7523136	diện </s>	0
-0.7523136	chạm </s>	0
-0.7523136	cọng </s>	0
-0.7523136	lang </s>	0
-0.7523136	kate </s>	0
-0.7523136	vĩ </s>	0
-0.7523136	berlin </s>	0
-0.7523136	nhé </s>	0
-0.7523136	cành </s>	0
-0.7523136	bềnh </s>	0
-1.7117198	<s> anh	-0.020128526
-1.715987	cho anh	-0.014512841
-2.0762641	các anh	-0.014512841
-1.8237084	của anh	-0.014512841
-2.1005692	ở anh	-0.014512841
-2.1159647	với anh	-0.014512841
-1.7475407	tiếng anh	-0.014512841
-1.3477781	mò anh	-0.014512841
-1.6626829	biết anh	-0.014512841
-1.186034	tôn anh	-0.014512841
-1.8384203	còn anh	-0.014512841
-1.3477781	rẽ anh	-0.014512841
-1.5458825	rõ anh	-0.014512841
-1.7398882	ấy anh	-0.014512841
-1.5422807	gặp anh	-0.014512841
-1.3477781	đuổi anh	-0.014512841
-1.5422807	xuống anh	-0.014512841
-1.186034	hỏi anh	-0.014512841
-1.7083617	tại anh	-0.014512841
-1.186034	đình anh	-0.014512841
-0.8998412	vợt anh	-0.014512841
-0.8998412	ngô anh	-0.014512841
-1.9818805	<s> có	-0.014512841
-1.6406599	anh có	-0.014512841
-1.9075822	tôi có	-0.014512841
-1.9335444	này có	-0.014512841
-1.3375243	không có	-0.014512841
-1.1623412	hẹp có	-0.014512841
-1.1683174	dài có	-0.014512841
-1.9783081	là có	-0.014512841
-1.4154344	lạnh có	-0.014512841
-1.4902244	chỉ có	-0.014512841
-1.313803	nay có	-0.014512841
-1.6717088	đang có	-0.03449387
-1.4154344	, có	-0.014512841
-1.7408731	còn có	-0.014512841
-1.4902244	nó có	-0.014512841
-1.8137155	cũng có	-0.014512841
-1.7452265	đây có	-0.014512841
-1.8276116	đó có	-0.014512841
-1.8710499	thể có	-0.014512841
-1.71939	cái có	-0.014512841
-1.1623412	hề có	-0.014512841
-1.1623412	cử có	-0.014512841
-1.2148105	bạn có	-0.014512841
-1.59523	đồng có	-0.014512841
-1.5539551	thấy có	-0.014512841
-1.4902244	chẳng có	-0.014512841
-1.5483578	chưa có	-0.014512841
-1.313803	khí có	-0.014512841
-0.8874219	cóc có	-0.014512841
-1.4902244	mới có	-0.014512841
-1.7599196	sẽ có	-0.014512841
-1.4154344	vị có	-0.014512841
-0.8874219	nhột có	-0.014512841
-1.4902244	rất có	-0.014512841
-1.683795	chúng có	-0.014512841
-0.8874219	đực có	-0.014512841
-0.8874219	bơi có	-0.014512841
-1.313803	tranh có	-0.014512841
-1.1623412	vật có	-0.014512841
-1.1623412	ích có	-0.014512841
-2.5323112	có thích	-0.014512841
-1.8467833	họ thích	-0.014512841
-2.0810966	cũng thích	-0.014512841
-1.3846383	vốn thích	-0.014512841
-1.384996	<s> tôi	-0.016774662
-1.4822679	thích tôi	-0.014512841
-1.7472606	cho tôi	-0.014512841
-1.3743823	của tôi	-0.014512841
-2.273347	và tôi	-0.014512841
-2.2219565	với tôi	-0.014512841
-1.3658172	sao tôi	-0.014512841
-1.3658172	bước tôi	-0.014512841
-1.5708525	khỏe tôi	-0.014512841
-1.7709086	chúng tôi	-0.014512841
-1.1983833	ấu tôi	-0.014512841
-1.3658172	hải tôi	-0.014512841
-1.1983833	ồ tôi	-0.014512841
-2.2991588	tôi giữ	-0.014512841
-1.3884708	cầm giữ	-0.014512841
-2.7241526	<s> trước	-0.014512841
-1.211094	giữ trước	-0.014512841
-1.3846383	dẫn trước	-0.014512841
-1.5070448	phía trước	-0.014512841
-1.607769	trước quyển	-0.014512841
-2.637588	một quyển	-0.014512841
-0.61816573	quyển sách	-0.014512841
-0.79378796	danh sách	-0.03449387
-1.2125297	ngân sách	-0.014512841
-2.4705942	<s> này	-0.014512841
-1.4588284	sách này	-0.014512841
-1.8384203	ý này	-0.014512841
-1.6084086	trường này	-0.014512841
-2.1403656	người này	-0.014512841
-1.841386	việc này	-0.014512841
-1.6084086	cứu này	-0.014512841
-2.0008554	thế này	-0.014512841
-1.8973435	đối này	-0.014512841
-1.7149842	điều này	-0.014512841
-1.1925132	lý này	-0.014512841
-1.8116906	cái này	-0.014512841
-1.3477781	nhẹ này	-0.014512841
-1.784769	định này	-0.014512841
-0.8998412	niệm này	-0.014512841
-1.186034	dây này	-0.014512841
-1.3477781	biệt này	-0.014512841
-1.4588284	tượng này	-0.014512841
-1.186034	lễ này	-0.014512841
-1.3477781	tem này	-0.014512841
-1.186034	can này	-0.014512841
-0.8998412	thiếp này	-0.014512841
-2.290501	<s> cho	-0.014512841
-1.6235045	này cho	-0.014512841
-2.1676643	không cho	-0.014512841
-1.5271837	tiên cho	-0.014512841
-1.7832116	và cho	-0.014512841
-1.7273126	đang cho	-0.014512841
-0.8963556	Khiêm cho	-0.014512841
-1.5314724	hà cho	-0.014512841
-0.8963556	gỡ cho	-0.014512841
-1.8380892	làm cho	-0.014512841
-1.5314724	lòng cho	-0.014512841
-0.8963556	quà cho	-0.014512841
-1.964532	thể cho	-0.014512841
-1.1793219	ràng cho	-0.014512841
-1.6428714	lớn cho	-0.014512841
-1.6428714	đồng cho	-0.014512841
-1.5314724	đánh cho	-0.014512841
-0.8963556	vệ cho	-0.014512841
-1.3380709	dẫn cho	-0.014512841
-1.1793219	thuật cho	-0.014512841
-1.3380709	bình cho	-0.014512841
-1.4463332	trợ cho	-0.014512841
-0.8963556	cẩu cho	-0.014512841
-1.3380709	bản cho	-0.014512841
-1.1793219	buồn cho	-0.014512841
-0.8963556	hãng cho	-0.014512841
-0.8963556	nhá cho	-0.014512841
-1.7326194	<s> không	-0.014512841
-2.006697	anh không	-0.014512841
-1.5949286	tôi không	-0.014512841
-1.5012652	trước không	-0.014512841
-1.9599159	này không	-0.014512841
-1.9839718	đã không	-0.014512841
-1.7607356	ý không	-0.014512841
-1.9908985	được không	-0.014512841
-2.0039632	và không	-0.014512841
-1.1674957	hóa không	-0.014512841
-1.7607356	thì không	-0.014512841
-1.5341879	hai không	-0.03449387
-1.8394434	đầu không	-0.014512841
-1.7886455	trên không	-0.014512841
-1.6093402	biết không	-0.014512841
-1.5610032	quả không	-0.014512841
-1.836486	cũng không	-0.014512841
-1.7648308	đây không	-0.014512841
-1.8496382	đó không	-0.014512841
-1.5610032	vậy không	-0.014512841
-1.6766276	gì không	-0.014512841
-1.3211266	lập không	-0.014512841
-1.8001945	nào không	-0.014512841
-1.7127666	vì không	-0.014512841
-1.6880722	vẫn không	-0.014512841
-0.8901512	niên không	-0.014512841
-0.8901512	tha không	-0.014512841
-1.1674957	phí không	-0.014512841
-1.3211266	tốt không	-0.03449387
-0.8901512	bart không	-0.014512841
-0.8901512	sửa không	-0.014512841
-1.3270924	quan không	-0.014512841
-1.5066812	e không	-0.014512841
-0.8901512	song không	-0.014512841
-1.3211266	tố không	-0.014512841
-0.8901512	thẹo không	-0.014512841
-2.2377727	<s> cô	-0.014512841
-2.269826	các cô	-0.014512841
-2.4913535	một cô	-0.014512841
-1.9873163	đầu cô	-0.014512841
-0.910469	thầy cô	-0.014512841
-1.8351567	ba cô	-0.014512841
-1.4986278	dù cô	-0.014512841
-1.8539927	cô ta	-0.014512841
-2.4511836	người ta	-0.014512841
-0.47342455	chúng ta	-0.014512841
-1.6787916	ta nghi	-0.014512841
-1.6014373	phố nghi	-0.014512841
-0.91262615	sùng nghi	-0.014512841
-1.5070448	chút nghi	-0.014512841
-0.91911274	nghi ngờ	-0.014512841
-1.211094	ngờ lúc	-0.014512841
-2.027865	nhiều lúc	-0.014512841
-1.7425737	cứ lúc	-0.014512841
-1.211094	cũ lúc	-0.014512841
-1.504221	lúc mình	-0.014512841
-1.9135381	của mình	-0.014512841
-2.1553955	để mình	-0.014512841
-1.673935	thu mình	-0.014512841
-1.9563767	thì mình	-0.014512841
-1.6856806	mình say	-0.014512841
-1.2136604	thói say	-0.014512841
-1.2125297	say rượu	-0.014512841
-0.9133476	bợm rượu	-0.014512841
-1.3867807	phê rượu	-0.014512841
-1.9900516	tôi đã	-0.014512841
-1.6172839	này đã	-0.014512841
-1.3342478	rượu đã	-0.014512841
-1.7143403	nên đã	-0.014512841
-2.0654337	người đã	-0.014512841
-1.1766659	hắn đã	-0.014512841
-2.0223486	khi đã	-0.014512841
-1.5212889	nó đã	-0.014512841
-1.8794545	cũng đã	-0.014512841
-1.1291686	mà đã	-0.014512841
-1.7182809	nói đã	-0.014512841
-1.1766659	phi đã	-0.014512841
-1.8014238	đây đã	-0.014512841
-1.9416921	ông đã	-0.014512841
-1.8910966	đó đã	-0.014512841
-1.7010963	gì đã	-0.014512841
-0.89496917	sư đã	-0.014512841
-1.3342478	kẻ đã	-0.014512841
-1.6394168	nhân đã	-0.014512841
-1.7143403	y đã	-0.014512841
-1.5212889	tuổi đã	-0.014512841
-1.5212889	xác đã	-0.014512841
-1.3342478	kỳ đã	-0.014512841
-1.1766659	cải đã	-0.014512841
-0.89496917	cắn đã	-0.014512841
-1.1766659	hoàng đã	-0.014512841
-0.89496917	bão đã	-0.014512841
-0.89496917	thoi đã	-0.014512841
-0.89496917	ngãi đã	-0.014512841
-2.4529052	<s> bị	-0.014512841
-1.8886256	có bị	-0.014512841
-1.640445	tôi bị	-0.014512841
-1.232831	đã bị	-0.014512841
-2.065975	các bị	-0.014512841
-1.7847228	người bị	-0.014512841
-1.835447	việc bị	-0.014512841
-1.3458191	lúa bị	-0.014512841
-1.4563005	điện bị	-0.014512841
-2.0085866	hai bị	-0.014512841
-1.6084728	lời bị	-0.014512841
-1.6621665	mặt bị	-0.014512841
-1.5392189	ít bị	-0.014512841
-1.3458191	châu bị	-0.014512841
-1.6048454	gái bị	-0.014512841
-1.4563005	vị bị	-0.014512841
-1.3458191	thơ bị	-0.014512841
-1.7038811	nữ bị	-0.014512841
-1.1846832	hiệu bị	-0.014512841
-0.89914185	ắt bị	-0.014512841
-1.1846832	chuẩn bị	-0.014512841
-1.1846832	xế bị	-0.014512841
-1.1846832	doanh bị	-0.014512841
-2.342994	bị toán	-0.014512841
-1.5121324	điện toán	-0.014512841
-3.2213833	<s> cưỡng	-0.014512841
-1.2136604	toán cưỡng	-0.014512841
-0.61856264	cưỡng bức	-0.014512841
-2.4306548	có nên	-0.014512841
-1.2039866	sáng nên	-0.014512841
-1.4931058	hợp nên	-0.014512841
-1.8601074	hơn nên	-0.014512841
-1.5857524	nặng nên	-0.014512841
-0.9090369	trở nên	-0.014512841
-0.9090369	lạ nên	-0.014512841
-1.4931058	nhanh nên	-0.014512841
-0.9090369	miên nên	-0.014512841
-1.8467833	nên ưu	-0.014512841
-2.3458138	khi ưu	-0.014512841
-1.6781156	mẹ ưu	-0.014512841
-0.91262615	suất ưu	-0.014512841
-0.9187932	ưu tiên	-0.014512841
-1.4288929	đầu tiên	-0.014512841
-1.5673153	<s> các	-0.018436175
-1.0375562	cho các	-0.014512841
-1.7834905	nên các	-0.014512841
-1.3710028	của các	-0.014512841
-2.1810522	ở các	-0.014512841
-0.9047685	dãy các	-0.014512841
-1.8512741	và các	-0.014512841
-2.1960669	với các	-0.014512841
-1.2494897	cả các	-0.014512841
-1.1956085	trưởng các	-0.014512841
-1.6367062	kéo các	-0.014512841
-1.6367062	bên các	-0.014512841
-1.5643388	xác các	-0.014512841
-1.7410905	tại các	-0.014512841
-1.1956085	ngắt các	-0.014512841
-2.3402805	các hoạt	-0.014512841
-1.6049726	gian hoạt	-0.014512841
-1.3867807	dạng hoạt	-0.014512841
-1.8226871	nên động	-0.014512841
-0.2495181	hoạt động	-0.014512841
-1.8315217	hành động	-0.014512841
-0.90975237	kích động	-0.014512841
-0.2495181	di động	-0.014512841
-0.90975237	huy động	-0.014512841
-0.2495181	tự động	-0.02773087
-1.3761725	biến động	-0.014512841
-2.0130243	động bí	-0.014512841
-1.8583255	sự bí	-0.014512841
-1.2143364	bí mật	-0.014512841
-2.7861657	<s> lỗ	-0.014512841
-0.913915	mức lỗ	-0.014512841
-1.3872781	lỗ mũi	-0.014512841
-2.006573	trên mũi	-0.014512841
-1.6077213	cổ mũi	-0.014512841
-1.3884708	mũi hẹp	-0.014512841
-2.2304552	thể hẹp	-0.014512841
-2.255419	anh tài	-0.014512841
-2.4306548	có tài	-0.014512841
-2.3108838	được tài	-0.014512841
-1.7742789	lý tài	-0.014512841
-1.4931058	nguồn tài	-0.014512841
-1.3740816	độc tài	-0.014512841
-1.4931058	thi tài	-0.014512841
-0.9090369	cướp tài	-0.014512841
-0.9090369	cắp tài	-0.014512841
-1.8583255	tài kiếm	-0.014512841
-1.5121324	nga kiếm	-0.014512841
-3.0032923	<s> tiền	-0.014512841
-1.2096633	kiếm tiền	-0.014512841
-1.792589	tư tiền	-0.014512841
-2.0189223	nhiều tiền	-0.014512841
-1.3825064	nhiêu tiền	-0.014512841
-3.2718623	<s> phờ	-0.014512841
-0.91425383	phờ phạc	-0.014512841
-2.1879342	<s> sau	-0.014512841
-0.9068974	phạc sau	-0.014512841
-1.8700978	và sau	-0.03449387
-1.7559092	nhưng sau	-0.014512841
-1.957958	đầu sau	-0.014512841
-1.4849521	qua sau	-0.014512841
-1.3678687	phèn sau	-0.014512841
-1.7744961	ấy sau	-0.014512841
-1.3678687	tuần sau	-0.014512841
-1.1997774	ẩn sau	-0.014512841
-1.1997774	đằng sau	-0.014512841
-0.9068974	thẩm sau	-0.014512841
-2.000262	sau hành	-0.014512841
-2.294362	với hành	-0.014512841
-2.3636863	những hành	-0.014512841
-0.90975237	cất hành	-0.014512841
-0.90975237	tốc hành	-0.014512841
-0.6165867	vận hành	-0.014512841
-1.3761725	cuộc hành	-0.014512841
-0.90975237	vượt hành	-0.014512841
-0.7262627	hành trình	-0.014512841
-0.9133476	tành trình	-0.014512841
-0.9133476	quy trình	-0.014512841
-1.5944521	trình dài	-0.014512841
-1.8776182	đường dài	-0.014512841
-1.0902942	kéo dài	-0.014512841
-0.79229414	chân dài	-0.014512841
-1.5944521	rất dài	-0.014512841
-1.5014154	chiều dài	-0.014512841
-3.2718623	<s> đâu	-0.014512841
-2.2141452	<s> là	-0.014512841
-1.9737275	này là	-0.014512841
-1.4294227	lúc là	-0.014512841
-0.8915223	đâu là	-0.014512841
-1.7710183	ý là	-0.014512841
-1.3248353	lúa là	-0.014512841
-1.7710183	phải là	-0.014512841
-1.5068927	toàn là	-0.014512841
-1.9372336	thế là	-0.014512841
-1.6920896	tiếng là	-0.014512841
-1.6920896	họ là	-0.014512841
-1.361302	trên là	-0.014512841
-1.3248353	nóng là	-0.014512841
-1.848335	cũng là	-0.014512841
-1.3303707	đây là	-0.014512841
-0.9523966	đó là	-0.014512841
-1.7262051	định là	-0.014512841
-1.9092336	như là	-0.014512841
-1.3248353	chí là	-0.014512841
-1.170096	lặng là	-0.014512841
-1.4294227	nhất là	-0.014512841
-1.5674667	bé là	-0.014512841
-1.3248353	hồng là	-0.014512841
-0.8915223	thuần là	-0.014512841
-1.170096	coi là	-0.014512841
-1.688336	chính là	-0.014512841
-1.3248353	từng là	-0.014512841
-1.4294227	xem là	-0.014512841
-0.8915223	mắn là	-0.014512841
-1.4294227	gọi là	-0.014512841
-1.170096	dỗ là	-0.014512841
-0.6084668	miễn là	-0.03449387
-0.8915223	hứa là	-0.014512841
-0.8915223	lĩnh là	-0.014512841
-2.4832451	là nền	-0.014512841
-0.91425383	nền tảng	-0.014512841
-0.9111869	tảng sinh	-0.014512841
-1.7339625	học sinh	-0.014512841
-1.7329358	giúp sinh	-0.014512841
-1.5944521	khỏe sinh	-0.014512841
-0.9111869	nảy sinh	-0.014512841
-1.2082372	vi sinh	-0.014512841
-1.4986278	sách học	-0.014512841
-1.6656928	sinh học	-0.014512841
-1.6669035	em học	-0.014512841
-1.6656928	trường học	-0.014512841
-1.9712932	sẽ học	-0.014512841
-1.4986278	văn học	-0.014512841
-1.2068156	đại học	-0.014512841
-1.4154344	thích của	-0.014512841
-1.7641177	động của	-0.014512841
-0.98573047	tiền của	-0.014512841
-1.6005728	học của	-0.014512841
-1.9692242	nước của	-0.014512841
-1.4902244	mùa của	-0.014512841
-1.6005728	vụ của	-0.014512841
-1.7408731	phải của	-0.014512841
-1.9086075	thế của	-0.014512841
-1.6668112	họ của	-0.014512841
-1.5483578	quả của	-0.014512841
-1.6391449	cầu của	-0.014512841
-1.4154344	kể của	-0.014512841
-1.5483578	mẹ của	-0.014512841
-1.4902244	tiếp của	-0.014512841
-1.4902244	ảnh của	-0.014512841
-1.6340343	giá của	-0.014512841
-1.6340343	cần của	-0.014512841
-1.313803	biệt của	-0.014512841
-1.4902244	dụng của	-0.014512841
-1.1623412	cấm của	-0.014512841
-0.8874219	phướn của	-0.014512841
-1.4902244	khai của	-0.014512841
-1.313803	hộ của	-0.014512841
-0.8874219	đen của	-0.014512841
-1.058214	cảm của	-0.014512841
-1.5539551	tay của	-0.014512841
-1.5239546	đẹp của	-0.014512841
-1.1623412	nhập của	-0.014512841
-1.1623412	tối của	-0.014512841
-0.8874219	deo của	-0.014512841
-1.1623412	cha của	-0.014512841
-0.8874219	dưới của	-0.014512841
-1.4154344	cao của	-0.014512841
-1.313803	vốn của	-0.014512841
-1.313803	xuất của	-0.014512841
-0.8874219	mày của	-0.014512841
-1.313803	trái của	-0.014512841
-0.8874219	đỉnh của	-0.014512841
-0.8874219	hảo của	-0.014512841
-2.3958347	có ý	-0.014512841
-2.3337693	của ý	-0.014512841
-1.487653	chú ý	-0.014512841
-0.7898158	cố ý	-0.014512841
-2.3100767	những ý	-0.014512841
-1.2011759	lưu ý	-0.014512841
-1.9748257	ăn ý	-0.014512841
-1.487653	nhờ ý	-0.014512841
-2.0702264	như ý	-0.014512841
-0.9076094	tùy ý	-0.014512841
-0.9076094	ngỏ ý	-0.014512841
-1.9484767	ý thức	-0.014512841
-2.3669074	được thức	-0.014512841
-1.6697944	hình thức	-0.014512841
-1.7938759	chính thức	-0.014512841
-1.8355772	vẫn thức	-0.014512841
-1.3803848	báo thức	-0.014512841
-3.0032923	<s> trẻ	-0.014512841
-1.5979307	kế trẻ	-0.014512841
-2.424858	những trẻ	-0.014512841
-1.8423128	bạn trẻ	-0.014512841
-1.737728	thủ trẻ	-0.014512841
-1.5944521	trẻ em	-0.014512841
-2.5181072	một em	-0.014512841
-2.384823	người em	-0.014512841
-1.7339625	mặt em	-0.014512841
-1.980599	đi em	-0.014512841
-1.3803848	đợi em	-0.014512841
-2.2452412	<s> ở	-0.014512841
-2.0432591	anh ở	-0.014512841
-2.054915	là ở	-0.014512841
-1.5819633	em ở	-0.014512841
-2.0307374	nước ở	-0.014512841
-1.9137201	để ở	-0.014512841
-1.4416006	phòng ở	-0.014512841
-1.8478403	hàng ở	-0.014512841
-1.174026	quê ở	-0.014512841
-1.4365896	nga ở	-0.014512841
-1.7906502	việc ở	-0.014512841
-1.5773461	nghe ở	-0.014512841
-1.5773461	chồng ở	-0.014512841
-1.7053028	ngày ở	-0.014512841
-0.8935871	cảng ở	-0.014512841
-1.878842	đó ở	-0.014512841
-0.8935871	cỏ ở	-0.014512841
-1.6320909	khó ở	-0.014512841
-1.4365896	nhất ở	-0.014512841
-1.6798062	phát ở	-0.014512841
-1.515473	việt ở	-0.014512841
-1.3356923	đau ở	-0.014512841
-1.174026	a ở	-0.014512841
-0.8935871	thai ở	-0.014512841
-1.5819633	bệnh ở	-0.014512841
-1.3356923	ngôi ở	-0.014512841
-0.8935871	nghèo ở	-0.014512841
-0.8935871	hổ ở	-0.014512841
-0.8935871	phim ở	-0.014512841
-0.8935871	đài ở	-0.014512841
-0.8935871	quấn ở	-0.014512841
-2.303626	các trường	-0.014512841
-2.3303206	ở trường	-0.014512841
-1.3833832	bốn trường	-0.014512841
-1.2096633	môi trường	-0.014512841
-0.9168987	thị trường	-0.014512841
-2.2452412	<s> được	-0.014512841
-1.9738451	tôi được	-0.014512841
-1.6111512	này được	-0.014512841
-2.131651	không được	-0.014512841
-1.5773461	mình được	-0.014512841
-1.2221842	đã được	-0.014512841
-1.3658601	động được	-0.014512841
-1.1268928	học được	-0.014512841
-1.9137201	để được	-0.014512841
-1.515473	phục được	-0.014512841
-2.0044754	khi được	-0.014512841
-1.7869136	còn được	-0.014512841
-1.8667378	cũng được	-0.014512841
-1.538448	ông được	-0.03449387
-1.9335685	thể được	-0.014512841
-1.5773461	phẩm được	-0.014512841
-1.847107	ăn được	-0.014512841
-1.515473	bay được	-0.014512841
-0.8935871	Park được	-0.014512841
-1.6696098	cần được	-0.014512841
-1.4365896	luôn được	-0.014512841
-1.174026	đĩa được	-0.014512841
-1.4365896	giả được	-0.014512841
-1.6696098	chết được	-0.014512841
-1.174026	lẫn được	-0.014512841
-1.174026	thủy được	-0.014512841
-1.7094333	vẫn được	-0.014512841
-1.515473	triển được	-0.014512841
-1.3356923	vui được	-0.014512841
-0.8935871	nhịp được	-0.014512841
-0.8935871	xóa được	-0.014512841
-2.4612389	được cung	-0.014512841
-0.913915	cung cấp	-0.014512841
-2.0130243	đi cấp	-0.014512841
-2.1977694	có nước	-0.014512841
-2.0364938	các nước	-0.014512841
-2.1480634	của nước	-0.014512841
-2.0604959	ở nước	-0.014512841
-1.180656	cấp nước	-0.014512841
-1.7695371	người nước	-0.03449387
-1.908703	đến nước	-0.014512841
-2.1122103	trong nước	-0.014512841
-1.4561614	nhà nước	-0.014512841
-1.4488037	qua nước	-0.014512841
-1.4488037	nguồn nước	-0.014512841
-1.5983412	nhiễm nước	-0.014512841
-1.4488037	lượng nước	-0.014512841
-1.5983412	dùng nước	-0.014512841
-1.6907105	về nước	-0.014512841
-0.8970505	húp nước	-0.014512841
-1.5983412	thấy nước	-0.014512841
-1.7120202	gì nước	-0.014512841
-0.8970505	gạt nước	-0.014512841
-0.8970505	bơm nước	-0.014512841
-1.4488037	giả nước	-0.014512841
-1.5301614	mất nước	-0.014512841
-1.4488037	chim nước	-0.014512841
-0.8970505	khấu nước	-0.014512841
-1.3399949	bản nước	-0.014512841
-0.8970505	sốc nước	-0.014512841
-2.2955236	nước sạch	-0.014512841
-1.7980912	chết sạch	-0.014512841
-1.211094	bắp sạch	-0.014512841
-1.211094	vứt sạch	-0.014512841
-2.120099	nước để	-0.014512841
-1.4639289	sạch để	-0.014512841
-1.8562986	công để	-0.014512841
-1.7953463	đường để	-0.014512841
-1.4639289	vợ để	-0.014512841
-1.551783	lòng để	-0.014512841
-1.8535134	đây để	-0.014512841
-1.5484694	năng để	-0.014512841
-1.7953463	định để	-0.014512841
-1.4639289	nhất để	-0.014512841
-1.188748	ngọt để	-0.014512841
-1.5484694	dụng để	-0.014512841
-1.6156237	gái để	-0.014512841
-1.188748	thủy để	-0.014512841
-1.4639289	hồ để	-0.014512841
-0.9012433	lửng để	-0.014512841
-0.9012433	đủ để	-0.014512841
-0.9012433	vọng để	-0.014512841
-0.9012433	tục để	-0.014512841
-0.9012433	chiếu để	-0.014512841
-2.1978722	để uống	-0.014512841
-1.4444143	<s> một	-0.010838917
-1.2340319	có một	-0.014512841
-2.0231638	cho một	-0.014512841
-1.7741195	không một	-0.014512841
-0.89685243	sau một	-0.02773087
-1.1303488	là một	-0.014512841
-1.9953222	và một	-0.014512841
-1.0708361	trong một	-0.024388455
-1.6057694	giúp một	-0.014512841
-1.6455721	nhưng một	-0.014512841
-1.671437	với một	-0.014512841
-1.7556841	thì một	-0.014512841
-1.6839231	cả một	-0.014512841
-1.8790946	vào một	-0.014512841
-1.5578072	mang một	-0.014512841
-1.4984785	chủ một	-0.014512841
-1.6057694	biết một	-0.014512841
-1.3253926	tìm một	-0.014512841
-1.7794266	ra một	-0.014512841
-1.7082407	con một	-0.014512841
-1.8854303	ông một	-0.014512841
-1.0010043	như một	-0.014512841
-1.4050851	từ một	-0.014512841
-1.5630919	ngay một	-0.014512841
-1.2587746	hơn một	-0.014512841
-1.3192841	kênh một	-0.014512841
-1.4556862	lái một	-0.014512841
-1.4223722	đoạn một	-0.014512841
-1.4223722	tới một	-0.014512841
-1.1662014	nếu một	-0.014512841
-1.3192841	tháng một	-0.014512841
-1.4984785	chế một	-0.014512841
-0.88946724	Brown một	-0.014512841
-1.4223722	giữa một	-0.014512841
-1.1662014	thoa một	-0.014512841
-1.3192841	đợi một	-0.014512841
-0.88946724	chúc một	-0.014512841
-2.6549544	một dãy	-0.014512841
-2.364945	các tủ	-0.014512841
-0.91262615	tủ lạnh	-0.014512841
-1.8467833	ngày lạnh	-0.014512841
-1.9290539	cái lạnh	-0.014512841
-1.211094	ớn lạnh	-0.014512841
-1.5121324	lạnh xếp	-0.014512841
-2.012688	sẽ xếp	-0.014512841
-1.2143364	xếp dọc	-0.014512841
-2.586588	<s> theo	-0.014512841
-2.2615554	đã theo	-0.014512841
-1.956517	động theo	-0.014512841
-0.9090369	dọc theo	-0.014512841
-2.3272715	người theo	-0.014512841
-1.9579415	làm theo	-0.014512841
-1.7712513	ngoài theo	-0.014512841
-1.4931058	sát theo	-0.014512841
-1.3740816	dừa theo	-0.014512841
-2.3215666	các căn	-0.014512841
-1.8900942	theo căn	-0.014512841
-2.186273	vào căn	-0.014512841
-2.4473257	những căn	-0.014512841
-1.5077288	căn phòng	-0.014512841
-2.186273	vào phòng	-0.014512841
-1.510861	dự phòng	-0.014512841
-0.91262615	thuê phòng	-0.014512841
-2.0483146	<s> hàng	-0.024388455
-2.3436568	và hàng	-0.014512841
-0.5491313	cửa hàng	-0.014512841
-1.7203993	mặt hàng	-0.014512841
-1.152608	bán hàng	-0.014512841
-0.9090369	săn hàng	-0.014512841
-0.9090369	hủy hàng	-0.014512841
-1.0871966	khách hàng	-0.014512841
-1.2039866	ngân hàng	-0.014512841
-2.0726926	hàng nghìn	-0.014512841
-0.913915	chục nghìn	-0.014512841
-2.0800848	<s> người	-0.014512841
-1.7782651	là người	-0.014512841
-1.0370246	của người	-0.014512841
-2.0701728	ở người	-0.014512841
-2.0945947	được người	-0.014512841
-1.903416	một người	-0.014512841
-0.6112604	nghìn người	-0.014512841
-2.0856948	với người	-0.014512841
-1.5642934	hai người	-0.014512841
-1.0710391	mọi người	-0.014512841
-1.7930049	những người	-0.014512841
-1.65445	mà người	-0.014512841
-1.7659386	con người	-0.03449387
-1.3419278	cảnh người	-0.014512841
-1.4073479	nhiều người	-0.014512841
-1.1819942	mắt người	-0.014512841
-1.6950566	cần người	-0.014512841
-1.3419278	trăm người	-0.014512841
-1.6759822	bao người	-0.014512841
-1.7330002	số người	-0.014512841
-0.89774644	mạ người	-0.014512841
-1.1819942	nếu người	-0.014512841
-1.1819942	kiểu người	-0.014512841
-0.89774644	nhoài người	-0.014512841
-0.6112604	nhóm người	-0.014512841
-2.4380326	của trung	-0.014512841
-2.4058363	người trung	-0.014512841
-1.5979307	phố trung	-0.014512841
-1.504221	sĩ trung	-0.014512841
-0.91190594	dõi trung	-0.014512841
-2.2955236	nước á	-0.014512841
-1.6021173	trung á	-0.014512841
-1.3846383	châu á	-0.014512841
-0.91262615	bắc á	-0.014512841
-1.5134776	á rời	-0.014512841
-0.913915	rời quê	-0.014512841
-1.8080913	về quê	-0.014512841
-1.2125297	quê hương	-0.014512841
-1.6049726	ít hương	-0.014512841
-0.9133476	xuân hương	-0.014512841
-2.1329799	này đến	-0.014512841
-2.2066007	cho đến	-0.014512841
-1.4769487	lúc đến	-0.014512841
-1.3617432	hương đến	-0.014512841
-0.9047685	quật đến	-0.014512841
-1.1956085	rồi đến	-0.014512841
-1.692031	biết đến	-0.014512841
-1.5643388	tiếp đến	-0.014512841
-2.0733836	thể đến	-0.014512841
-1.3617432	dẫn đến	-0.014512841
-1.5643388	việt đến	-0.014512841
-1.3617432	bước đến	-0.014512841
-1.399172	đi đến	-0.014512841
-1.5643388	mừng đến	-0.014512841
-1.3617432	tháng đến	-0.014512841
-3.0696728	<s> nga	-0.014512841
-2.1037922	đến nga	-0.014512841
-2.3624668	với nga	-0.014512841
-1.211094	mỏ nga	-0.014512841
-2.808236	<s> việc	-0.014512841
-1.2039866	kiếm việc	-0.014512841
-2.3436568	và việc	-0.014512841
-2.3450713	những việc	-0.014512841
-1.41276	làm việc	-0.014512841
-2.0375135	đó việc	-0.014512841
-1.5507058	như việc	-0.014512841
-2.0082817	từ việc	-0.014512841
-1.258698	sự việc	-0.014512841
-2.6929328	<s> thu	-0.014512841
-2.323324	đã thu	-0.014512841
-1.673935	chồng thu	-0.014512841
-1.504221	nguồn thu	-0.014512841
-1.5979307	tiếp thu	-0.014512841
-1.6856806	thu hoạch	-0.014512841
-1.607769	kế hoạch	-0.014512841
-2.1406982	<s> và	-0.014512841
-1.3101869	mũi và	-0.014512841
-1.5479689	thức và	-0.014512841
-1.6862925	theo và	-0.014512841
-1.1597867	hoạch và	-0.014512841
-1.3101869	thư và	-0.014512841
-1.5938689	khác và	-0.014512841
-1.5421705	nghe và	-0.014512841
-1.6637528	đang và	-0.014512841
-1.6317871	cầu và	-0.014512841
-0.88606364	pu và	-0.014512841
-1.1597867	vĩnh và	-0.014512841
-1.1597867	thúc và	-0.014512841
-1.7357466	đây và	-0.014512841
-1.3101869	phèn và	-0.014512841
-1.4848075	nghiệp và	-0.014512841
-1.4848075	minh và	-0.014512841
-0.88606364	nến và	-0.014512841
-1.4848075	dụng và	-0.014512841
-1.3101869	đuổi và	-0.014512841
-1.6911354	tình và	-0.014512841
-1.1597867	kiện và	-0.014512841
-0.88606364	hoảng và	-0.014512841
-1.3169923	bàn và	-0.014512841
-1.1597867	ho và	-0.014512841
-1.5421705	nhỏ và	-0.014512841
-0.88606364	mởn và	-0.014512841
-1.4848075	khỏe và	-0.014512841
-1.4108698	nhận và	-0.014512841
-1.4108698	cao và	-0.014512841
-1.1597867	mẽ và	-0.014512841
-0.88606364	nghịu và	-0.014512841
-0.88606364	lan và	-0.014512841
-1.1597867	sướng và	-0.014512841
-1.1597867	dỗ và	-0.014512841
-1.1597867	đạt và	-0.014512841
-0.88606364	rum và	-0.014512841
-1.1597867	mây và	-0.014512841
-1.3101869	dừa và	-0.014512841
-1.1597867	thuế và	-0.014512841
-0.88606364	cận và	-0.014512841
-0.88606364	tỏi và	-0.014512841
-1.9726214	ý bảo	-0.014512841
-2.4765453	và bảo	-0.014512841
-0.9133476	đảm bảo	-0.014512841
-1.3884708	bảo quản	-0.014512841
-1.2136604	xã quản	-0.014512841
-1.2125297	quản lúa	-0.014512841
-1.5098872	cắt lúa	-0.014512841
-0.9133476	đập lúa	-0.014512841
-2.4717054	là khâu	-0.014512841
-2.0726926	từ khâu	-0.014512841
-2.3674932	ở cuối	-0.014512841
-1.2125297	khâu cuối	-0.014512841
-2.2000241	vào cuối	-0.014512841
-2.3082435	anh cùng	-0.014512841
-1.3825064	cuối cùng	-0.014512841
-1.673935	phẩm cùng	-0.014512841
-1.3825064	vai cùng	-0.014512841
-0.47112447	vô cùng	-0.014512841
-1.6408116	<s> trong	-0.014512841
-2.0338356	này trong	-0.014512841
-1.594328	mình trong	-0.014512841
-2.1041467	là trong	-0.014512841
-2.069095	nước trong	-0.014512841
-2.1619313	một trong	-0.014512841
-1.646762	cùng trong	-0.014512841
-1.6506426	khác trong	-0.014512841
-1.7318997	cả trong	-0.014512841
-1.180656	chó trong	-0.014512841
-1.180656	ngập trong	-0.014512841
-1.0700489	dùng trong	-0.014512841
-1.7643576	định trong	-0.014512841
-1.846617	nào trong	-0.014512841
-1.594328	gái trong	-0.014512841
-1.5301614	mất trong	-0.014512841
-0.8970505	dũng trong	-0.014512841
-1.646762	thủ trong	-0.014512841
-1.594328	thiếu trong	-0.014512841
-0.8970505	tỉnh trong	-0.014512841
-1.180656	rực trong	-0.014512841
-1.180656	rỡ trong	-0.014512841
-1.3399949	dung trong	-0.014512841
-0.8970505	Bush trong	-0.014512841
-0.8970505	dần trong	-0.014512841
-0.8970505	sống trong	-0.014512841
-2.4087954	là mùa	-0.014512841
-2.5466175	một mùa	-0.014512841
-2.327013	khi mùa	-0.014512841
-1.504221	trang mùa	-0.014512841
-1.737728	biết mùa	-0.014512841
-2.3488967	trong vụ	-0.014512841
-1.5944521	mùa vụ	-0.014512841
-1.5944521	phục vụ	-0.014512841
-1.5944521	nghiệp vụ	-0.014512841
-0.79229414	dịch vụ	-0.014512841
-0.9111869	nhiệm vụ	-0.014512841
-1.9108828	người mẫu	-0.014512841
-2.3958347	có phải	-0.014512841
-1.8859854	không phải	-0.014512841
-1.6496632	mình phải	-0.014512841
-1.2011759	mẫu phải	-0.014512841
-1.6496632	dân phải	-0.014512841
-1.8090475	bạn phải	-0.014512841
-1.5774654	gặp phải	-0.014512841
-1.5774654	chẳng phải	-0.014512841
-1.9394835	sẽ phải	-0.014512841
-1.8072469	vẫn phải	-0.014512841
-1.2011759	não phải	-0.014512841
-2.1680133	để tập	-0.014512841
-2.5771317	một tập	-0.014512841
-1.9644232	phải tập	-0.014512841
-0.91262615	triệu tập	-0.014512841
-1.5134776	tập tành	-0.014512841
-1.6049726	trình diễn	-0.014512841
-2.204462	hai diễn	-0.014512841
-1.9019709	thành diễn	-0.014512841
-1.3872781	diễn quần	-0.014512841
-1.6828278	dùng quần	-0.014512841
-1.2125297	làng quần	-0.014512841
-1.3894821	quần quật	-0.014512841
-2.1297853	đến tận	-0.014512841
-0.91425383	tận khuya	-0.014512841
-3.1480625	<s> toàn	-0.014512841
-1.8530221	xe toàn	-0.014512841
-0.47148928	hoàn toàn	-0.024388455
-1.6014373	toàn bộ	-0.014512841
-2.3624668	với bộ	-0.014512841
-1.211094	nghị bộ	-0.014512841
-1.7425737	cứ bộ	-0.014512841
-1.5134776	bộ quy	-0.014512841
-1.6014373	trình điện	-0.014512841
-2.3458138	khi điện	-0.014512841
-1.211094	dòng điện	-0.014512841
-1.3846383	tàu điện	-0.014512841
-1.2136604	toán hóa	-0.014512841
-0.913915	bách hóa	-0.014512841
-1.2125297	hóa thư	-0.014512841
-1.3872781	ung thư	-0.014512841
-0.9133476	gởi thư	-0.014512841
-2.4497862	được viện	-0.014512841
-1.3884708	thư viện	-0.014512841
-2.0551968	<s> do	-0.014512841
-1.4972737	nghi do	-0.014512841
-2.349896	là do	-0.014512841
-1.3761725	hương do	-0.014512841
-1.2053988	viện do	-0.014512841
-1.210817	lý do	-0.014512841
-1.495858	nghĩa do	-0.014512841
-1.2053988	vững do	-0.014512841
-2.7360191	<s> công	-0.014512841
-2.3982918	một công	-0.014512841
-2.0317512	đến công	-0.014512841
-1.9109983	do công	-0.014512841
-1.7609632	tư công	-0.014512841
-1.3041784	thành công	-0.014512841
-1.6496632	gái công	-0.014512841
-1.2011759	chém công	-0.014512841
-1.7730497	chính công	-0.014512841
-1.7097371	thủ công	-0.014512841
-1.2011759	tấn công	-0.014512841
-1.3943844	công ty	-0.014512841
-1.2143364	ty Lạc	-0.014512841
-0.91425383	Lạc Việt	-0.014512841
-1.9484767	ý giúp	-0.014512841
-0.9111869	Việt giúp	-0.014512841
-2.3089924	khi giúp	-0.014512841
-1.7881732	cầu giúp	-0.014512841
-2.0610373	cũng giúp	-0.014512841
-1.5014154	pháp giúp	-0.014512841
-1.7474741	giúp nghiên	-0.014512841
-1.5149858	nhà nghiên	-0.03449387
-1.6823368	quả nghiên	-0.014512841
-1.2125297	cấp cứu	-0.014512841
-2.1810086	để cứu	-0.014512841
-0.2499084	nghiên cứu	-0.014512841
-2.9457257	<s> thiết	-0.014512841
-1.6697944	cứu thiết	-0.014512841
-2.3270807	với thiết	-0.014512841
-2.0619934	nhà thiết	-0.014512841
-1.7871554	cần thiết	-0.014512841
-1.9796234	sẽ thiết	-0.014512841
-1.8562135	hành kế	-0.014512841
-0.34865397	thiết kế	-0.024388455
-1.3867807	ủ kế	-0.014512841
-2.619946	<s> thế	-0.014512841
-1.4795618	ưu thế	-0.014512841
-1.9583336	hàng thế	-0.014512841
-2.2263315	trong thế	-0.014512841
-1.912023	ra thế	-0.014512841
-1.0171975	như thế	-0.014512841
-1.9383653	nhiều thế	-0.014512841
-1.7410905	giá thế	-0.014512841
-1.4769487	nhất thế	-0.014512841
-0.9047685	hư thế	-0.014512841
-1.4769487	vị thế	-0.014512841
-1.7410905	ngoài thế	-0.014512841
-1.1956085	trông thế	-0.014512841
-1.1956085	nghĩ thế	-0.014512841
-0.9047685	yểm thế	-0.014512841
-1.8580223	<s> nhưng	-0.014512841
-2.1256788	thế nhưng	-0.014512841
-1.7474741	lớn nhưng	-0.014512841
-2.7039657	<s> đối	-0.014512841
-2.3794184	có đối	-0.014512841
-2.318589	của đối	-0.014512841
-1.7559092	nhưng đối	-0.014512841
-2.2142174	khi đối	-0.014512841
-1.1997774	tuyệt đối	-0.014512841
-1.6572058	phụ đối	-0.014512841
-1.5741464	mới đối	-0.014512841
-1.5762213	nặng đối	-0.014512841
-1.6498342	cảm đối	-0.014512841
-1.7052424	cứ đối	-0.014512841
-1.5741464	án đối	-0.014512841
-2.3738837	<s> với	-0.014512841
-1.803413	ý với	-0.014512841
-2.0637722	được với	-0.014512841
-1.9356508	để với	-0.014512841
-1.8946459	đến với	-0.014512841
-0.4047329	đối với	-0.014512841
-1.6431266	khác với	-0.014512841
-1.7189307	tiếng với	-0.014512841
-1.7227733	nói với	-0.014512841
-1.4438767	loại với	-0.014512841
-1.1779919	quen với	-0.014512841
-1.740738	ba với	-0.014512841
-1.5874554	phẩm với	-0.014512841
-1.3409352	làn với	-0.014512841
-1.3361552	biệt với	-0.014512841
-0.89566183	ngợp với	-0.014512841
-1.5242263	chuyện với	-0.014512841
-1.5960183	cảm với	-0.014512841
-1.1779919	hò với	-0.014512841
-1.4484701	gầy với	-0.014512841
-0.89566183	so với	-0.014512841
-1.7203743	chúng với	-0.014512841
-1.3361552	tăng với	-0.014512841
-1.3361552	vốn với	-0.014512841
-1.1779919	tầm với	-0.014512841
-1.3361552	trái với	-0.014512841
-0.89566183	mái với	-0.014512841
-0.89566183	nấu với	-0.014512841
-2.4061375	với vượng	-0.014512841
-0.9068974	vượng thì	-0.014512841
-1.3678687	bạc thì	-0.014512841
-1.6457466	mẹ thì	-0.014512841
-1.7185612	yêu thì	-0.014512841
-0.9068974	thôi thì	-0.014512841
-1.1997774	nề thì	-0.014512841
-1.5741464	xác thì	-0.014512841
-1.4849521	xem thì	-0.014512841
-0.9068974	ngọn thì	-0.014512841
-1.3678687	bình thì	-0.014512841
-0.9068974	còm thì	-0.014512841
-1.1997774	kia thì	-0.014512841
-2.8949041	<s> khác	-0.014512841
-1.5910013	trẻ khác	-0.014512841
-1.5910013	toàn khác	-0.014512841
-1.9407178	thì khác	-0.014512841
-1.4986278	pháp khác	-0.014512841
-1.3782735	cáo khác	-0.014512841
-1.6669035	bệnh khác	-0.014512841
-2.4479406	không chỉ	-0.014512841
-1.7385794	khác chỉ	-0.014512841
-1.9897501	làm chỉ	-0.014512841
-1.504221	chiều chỉ	-0.014512841
-1.3825064	hãy chỉ	-0.014512841
-2.3372784	anh vài	-0.014512841
-1.6049726	chỉ vài	-0.014512841
-0.9133476	rải vài	-0.014512841
-2.466153	một tiếng	-0.014512841
-1.5875776	toàn tiếng	-0.014512841
-1.3761725	vài tiếng	-0.014512841
-1.6616296	nghe tiếng	-0.014512841
-2.3636863	những tiếng	-0.014512841
-1.5875776	năng tiếng	-0.014512841
-1.3776054	danh tiếng	-0.014512841
-0.6165867	nổi tiếng	-0.014512841
-1.8609736	tiếng huýt	-0.014512841
-0.91425383	huýt sáo	-0.014512841
-3.2213833	<s> hắn	-0.014512841
-0.913915	sáo hắn	-0.014512841
-1.6781156	thu phục	-0.014512841
-2.4513783	và phục	-0.014512841
-1.5070448	trang phục	-0.014512841
-0.91262615	khâm phục	-0.014512841
-2.349896	là cả	-0.014512841
-2.3827796	của cả	-0.014512841
-2.3287673	được cả	-0.014512841
-1.5875776	bay cả	-0.014512841
-1.7764883	giá cả	-0.014512841
-1.663012	ngay cả	-0.014512841
-0.6165867	tất cả	-0.014512841
-1.495858	đấu cả	-0.014512841
-1.9968622	<s> hai	-0.014512841
-1.9372797	sau hai	-0.014512841
-1.1928513	xếp hai	-0.014512841
-1.775523	cả hai	-0.014512841
-1.6294739	lần hai	-0.014512841
-1.7729119	ngày hai	-0.014512841
-1.1928513	tức hai	-0.014512841
-1.6266764	phần hai	-0.014512841
-1.3577071	kênh hai	-0.014512841
-0.7868603	chuyển hai	-0.014512841
-1.8981501	đi hai	-0.014512841
-1.6294739	khách hai	-0.014512841
-1.3577071	lìa hai	-0.014512841
-1.3577071	khiến hai	-0.014512841
-0.903355	khoảng hai	-0.014512841
-0.903355	q5 hai	-0.014512841
-0.903355	ls hai	-0.014512841
-2.5771317	một chú	-0.014512841
-2.1922596	hai chú	-0.014512841
-1.7425737	rằng chú	-0.014512841
-0.91262615	thèm chú	-0.014512841
-1.5121324	chú chó	-0.014512841
-0.913915	đàn chó	-0.014512841
-1.2136604	chó rồi	-0.014512841
-0.913915	york rồi	-0.014512841
-2.4890342	<s> vào	-0.014512841
-2.0617006	tôi vào	-0.014512841
-2.0761206	này vào	-0.014512841
-2.1484246	cho vào	-0.014512841
-1.6120012	mình vào	-0.014512841
-1.1873889	rồi vào	-0.014512841
-1.712889	tư vào	-0.014512841
-1.545364	thêm vào	-0.014512841
-1.7870104	con vào	-0.014512841
-1.7524977	xe vào	-0.014512841
-1.1873889	lửa vào	-0.014512841
-0.90054166	lâm vào	-0.014512841
-1.3534207	dụ vào	-0.014512841
-1.3497458	sa vào	-0.014512841
-0.90054166	lãm vào	-0.014512841
-1.1873889	hoa vào	-0.014512841
-1.1873889	chắc vào	-0.014512841
-1.4613712	gọi vào	-0.014512841
-1.1873889	tiến vào	-0.014512841
-0.90054166	ngồi vào	-0.014512841
-0.90054166	xen vào	-0.014512841
-2.197455	<s> nhà	-0.014512841
-1.487653	sách nhà	-0.014512841
-1.7410072	các nhà	-0.014512841
-2.1005652	vào nhà	-0.014512841
-1.5774654	chủ nhà	-0.014512841
-1.7115867	mặt nhà	-0.014512841
-1.7115867	mà nhà	-0.014512841
-1.9909862	từ nhà	-0.014512841
-0.9076094	tường nhà	-0.014512841
-0.7898158	ngôi nhà	-0.014512841
-1.2011759	mỗi nhà	-0.014512841
-2.1051202	nhà khua	-0.014512841
-1.8601723	<s> khi	-0.014512841
-2.2308044	có khi	-0.014512841
-1.7426395	nên khi	-0.014512841
-1.8590071	động khi	-0.014512841
-1.4172517	sau khi	-0.014512841
-2.200009	một khi	-0.014512841
-1.9306804	đến khi	-0.014512841
-0.95043135	trong khi	-0.014512841
-1.7038811	nhưng khi	-0.014512841
-1.7459595	cả khi	-0.014512841
-1.6084728	mọi khi	-0.014512841
-1.8323863	còn khi	-0.014512841
-2.144386	những khi	-0.014512841
-1.3458191	nhau khi	-0.014512841
-1.5392189	ít khi	-0.014512841
-1.8937893	ăn khi	-0.014512841
-1.8995824	từ khi	-0.014512841
-1.7232258	gì khi	-0.014512841
-1.7038811	chết khi	-0.014512841
-1.4563005	nạn khi	-0.014512841
-1.4563005	nhận khi	-0.014512841
-0.89914185	đãi khi	-0.014512841
-0.89914185	lao khi	-0.014512841
-3.0032923	<s> tác	-0.014512841
-2.303626	các tác	-0.014512841
-1.9719564	đối tác	-0.014512841
-2.424858	những tác	-0.014512841
-1.5979307	chế tác	-0.014512841
-2.220387	đã đầu	-0.014512841
-2.318589	của đầu	-0.014512841
-2.2634714	trong đầu	-0.014512841
-1.9038756	phải đầu	-0.014512841
-1.49101	nhà đầu	-0.03449387
-1.5741464	tác đầu	-0.014512841
-1.0841209	lần đầu	-0.02773087
-1.8729494	cái đầu	-0.014512841
-1.3678687	ban đầu	-0.014512841
-1.6457466	hình đầu	-0.014512841
-1.6457466	hiện đầu	-0.014512841
-1.1997774	phép đầu	-0.014512841
-3.1480625	<s> tư	-0.014512841
-0.5467518	đầu tư	-0.014512841
-1.6823368	bé tư	-0.014512841
-1.6059594	tiền bạc	-0.014512841
-1.6828278	em bạc	-0.014512841
-2.0919573	nhà bạc	-0.014512841
-1.9430013	công sức	-0.014512841
-1.7817891	nhưng sức	-0.014512841
-1.8018359	với sức	-0.03449387
-1.6669035	mọi sức	-0.014512841
-1.6669035	lần sức	-0.014512841
-1.5910013	bởi sức	-0.014512841
-0.910469	sóc sức	-0.014512841
-2.2955236	nước hay	-0.014512841
-2.4279184	người hay	-0.014512841
-0.91262615	sầu hay	-0.014512841
-0.91262615	nâu hay	-0.014512841
-3.1480625	<s> tò	-0.014512841
-1.5098872	hay tò	-0.014512841
-1.3867807	kỳ tò	-0.014512841
-0.25000635	tò mò	-0.014512841
-1.3884708	mò ưa	-0.014512841
-1.607769	chẳng ưa	-0.014512841
-1.8579851	nên khám	-0.014512841
-1.2136604	ưa khám	-0.014512841
-1.2143364	khám phá	-0.014512841
-0.913915	phá sáng	-0.014512841
-1.2136604	ánh sáng	-0.014512841
-2.323324	đã tạo	-0.014512841
-1.2096633	sáng tạo	-0.014512841
-1.737728	cách tạo	-0.014512841
-1.5979307	chế tạo	-0.03449387
-0.91190594	trùng tạo	-0.014512841
-2.3372784	anh tâm	-0.014512841
-1.6054657	trung tâm	-0.014512841
-1.6054657	tạo tâm	-0.014512841
-1.3894821	tâm hồn	-0.014512841
-0.91425383	hồn cởi	-0.014512841
-0.91425383	cởi mở	-0.014512841
-2.6365135	<s> họ	-0.014512841
-2.3686552	là họ	-0.014512841
-1.9019533	của họ	-0.014512841
-0.910469	mở họ	-0.014512841
-1.7293942	mà họ	-0.03449387
-1.6656928	vậy họ	-0.014512841
-1.2068156	phiếu họ	-0.014512841
-1.5098872	thích lắng	-0.014512841
-2.4312434	được lắng	-0.014512841
-1.3872781	cố lắng	-0.014512841
-2.509987	có nghe	-0.014512841
-1.9164758	không nghe	-0.014512841
-1.9571984	việc nghe	-0.014512841
-2.4275904	và nghe	-0.014512841
-1.3825064	lắng nghe	-0.014512841
-2.3117378	cho mọi	-0.014512841
-1.9494605	việc mọi	-0.014512841
-2.3270807	với mọi	-0.014512841
-1.9484767	thì mọi	-0.014512841
-1.3803848	tiêu mọi	-0.014512841
-1.8766177	vì mọi	-0.014512841
-2.9457257	<s> lời	-0.014512841
-1.8766177	theo lời	-0.014512841
-2.384823	người lời	-0.014512841
-1.2082372	lấy lời	-0.014512841
-1.2082372	ngắt lời	-0.014512841
-1.2082372	trả lời	-0.014512841
-1.6879421	lời khuyên	-0.014512841
-2.9457257	<s> năm	-0.014512841
-2.4034956	những năm	-0.014512841
-1.8402083	ba năm	-0.014512841
-2.0355895	từ năm	-0.014512841
-1.5014154	mươi năm	-0.014512841
-1.3803848	kênh năm	-0.014512841
-1.6856806	năm nay	-0.014512841
-0.79417986	hôm nay	-0.014512841
-1.3894821	nay Tứ	-0.014512841
-0.913915	Tứ Sơn	-0.014512841
-0.913915	Thất Sơn	-0.014512841
-2.2113428	tôi đang	-0.014512841
-1.663012	ta đang	-0.014512841
-2.3456206	người đang	-0.014512841
-1.6616296	cứu đang	-0.014512841
-1.8226871	họ đang	-0.03449387
-1.2053988	Sơn đang	-0.014512841
-1.2053988	da đang	-0.014512841
-1.3761725	mía đang	-0.014512841
-3.0696728	<s> ấp	-0.014512841
-1.8474479	đang ấp	-0.014512841
-1.5070448	tưởng ấp	-0.014512841
-1.6781156	mẹ ấp	-0.014512841
-0.3748766	ấp ủ	-0.014512841
-1.6747926	thức đưa	-0.014512841
-2.3873117	được đưa	-0.014512841
-1.2096633	hoạch đưa	-0.014512841
-1.8841369	đường đưa	-0.014512841
-1.9881166	sẽ đưa	-0.014512841
-1.6097008	đưa gạo	-0.014512841
-0.91425383	gạo Tam	-0.014512841
-0.91425383	Tam Giang	-0.014512841
-1.211094	Sơn ,	-0.014512841
-0.91262615	Giang ,	-0.014512841
-2.0833833	đó ,	-0.014512841
-1.3846383	tuần ,	-0.014512841
-1.5134776	, Thất	-0.014512841
-1.5134776	, Núi	-0.014512841
-0.91425383	Núi Sam	-0.014512841
-0.9111869	Sam mang	-0.014512841
-1.7329358	lại mang	-0.014512841
-1.5954971	lòng mang	-0.014512841
-1.2082372	sang mang	-0.014512841
-1.7871554	nữ mang	-0.014512841
-0.9111869	nhẽo mang	-0.014512841
-2.3082435	anh thêm	-0.014512841
-1.673935	mang thêm	-0.014512841
-1.504221	càng thêm	-0.014512841
-0.91190594	phui thêm	-0.014512841
-0.91190594	rắc thêm	-0.014512841
-3.0696728	<s> qua	-0.014512841
-1.6014373	thêm qua	-0.014512841
-1.3853263	hôm qua	-0.014512841
-0.91262615	washington qua	-0.014512841
-2.3203373	nước Mỹ	-0.014512841
-1.5121324	phủ Mỹ	-0.014512841
-2.7241526	<s> chủ	-0.014512841
-1.8900942	theo chủ	-0.014512841
-2.204804	thể chủ	-0.014512841
-1.8474479	vẫn chủ	-0.014512841
-2.4887547	có cửa	-0.014512841
-1.5944521	trước cửa	-0.014512841
-2.2863972	các cửa	-0.014512841
-2.312863	ở cửa	-0.014512841
-2.5181072	một cửa	-0.014512841
-1.9484767	còn cửa	-0.014512841
-2.0647302	hàng trang	-0.014512841
-1.8368341	trong trang	-0.03449387
-1.0941178	thời trang	-0.014512841
-1.5121324	trang trí	-0.014512841
-1.8080913	về trí	-0.014512841
-1.2136604	trí nội	-0.014512841
-1.0153781	hà nội	-0.014512841
-1.3894821	nội thất	-0.014512841
-2.153717	này trên	-0.014512841
-2.3583071	một trên	-0.014512841
-0.90618664	thất trên	-0.014512841
-1.7964127	nói trên	-0.014512841
-1.9743531	từ trên	-0.014512841
-0.90618664	gắn trên	-0.014512841
-1.641865	phần trên	-0.014512841
-1.7509131	chết trên	-0.014512841
-1.1983833	lương trên	-0.014512841
-1.1983833	hoa trên	-0.014512841
-0.90618664	nghẹt trên	-0.014512841
-0.90618664	nắng trên	-0.014512841
-0.90618664	nhảy trên	-0.014512841
-1.41276	trên đường	-0.014512841
-1.7203993	mặt đường	-0.014512841
-0.9090369	lề đường	-0.014512841
-1.6576041	vậy đường	-0.014512841
-1.7203993	bán đường	-0.014512841
-1.3740816	thống đường	-0.014512841
-1.4931058	đoạn đường	-0.014512841
-0.9090369	đò đường	-0.014512841
-1.5841806	lên đường	-0.014512841
-1.9060518	đường Nguyễn	-0.014512841
-0.91425383	Nguyễn Bỉnh	-0.014512841
-0.91425383	Bỉnh Khiêm	-0.014512841
-3.0032923	<s> biết	-0.014512841
-2.3082435	anh biết	-0.014512841
-1.0446438	cho biết	-0.024388455
-2.3873117	được biết	-0.014512841
-1.504221	hợp biết	-0.014512841
-2.328557	bị nóng	-0.014512841
-1.6049726	mùa nóng	-0.014512841
-1.2125297	chống nóng	-0.014512841
-2.4004273	của mặt	-0.014512841
-2.1474535	vào mặt	-0.014512841
-1.9735547	trên mặt	-0.014512841
-0.910469	gằm mặt	-0.014512841
-1.4986278	giữa mặt	-0.014512841
-0.910469	úp mặt	-0.014512841
-0.910469	bẽ mặt	-0.014512841
-2.0547976	hàng quả	-0.014512841
-1.0138386	kết quả	-0.014512841
-1.896919	thành quả	-0.014512841
-0.61784947	hậu quả	-0.014512841
-2.2863972	các cầu	-0.014512841
-2.5181072	một cầu	-0.014512841
-1.9815769	trên cầu	-0.014512841
-1.6697944	quả cầu	-0.014512841
-0.9111869	xây cầu	-0.014512841
-0.61656874	yêu cầu	-0.014512841
-1.8110073	cầu hút	-0.014512841
-0.91425383	hút nhiệt	-0.014512841
-0.913915	nhiệt tôn	-0.014512841
-1.2136604	lá tôn	-0.014512841
-1.2143364	tôn pu	-0.014512841
-2.5103123	và sơn	-0.014512841
-0.913915	sơn chống	-0.014512841
-1.3884708	kem chống	-0.014512841
-3.2718623	<s> vội	-0.014512841
-0.91425383	vội hít	-0.014512841
-1.504221	lạnh hà	-0.014512841
-0.91190594	hít hà	-0.014512841
-2.1744914	ông hà	-0.014512841
-0.91190594	lũ hà	-0.014512841
-0.91190594	ảo hà	-0.014512841
-1.6081133	hà bóc	-0.014512841
-1.5121324	dễ bóc	-0.014512841
-1.2143364	bóc gỡ	-0.014512841
-2.217905	vào mồm	-0.014512841
-0.91425383	mồm nhai	-0.014512841
-0.91425383	nhai ngấu	-0.014512841
-0.91425383	ngấu nghiến	-0.014512841
-1.932247	<s> còn	-0.014512841
-2.268035	anh còn	-0.014512841
-2.210355	này còn	-0.014512841
-1.9330951	do còn	-0.014512841
-2.2750502	khi còn	-0.014512841
-1.9343864	đây còn	-0.014512841
-1.2053988	rác còn	-0.014512841
-0.90975237	chỗ còn	-0.014512841
-1.9831245	còn thầy	-0.014512841
-1.8309389	cô lại	-0.014512841
-1.8285869	tiếng lại	-0.014512841
-1.6656928	mang lại	-0.014512841
-0.910469	khựng lại	-0.014512841
-0.910469	hoan lại	-0.014512841
-0.910469	chép lại	-0.014512841
-1.2068156	trả lại	-0.014512841
-1.9644232	ý tưởng	-0.014512841
-1.7425737	lại tưởng	-0.014512841
-1.799429	lý tưởng	-0.014512841
-0.91262615	hồi tưởng	-0.014512841
-1.0453589	cho rằng	-0.014512841
-1.6781156	nghe rằng	-0.014512841
-1.5070448	tưởng rằng	-0.014512841
-1.6014373	khai rằng	-0.014512841
-2.4087954	là nó	-0.014512841
-2.4380326	của nó	-0.014512841
-1.737728	rằng nó	-0.014512841
-1.9571984	đây nó	-0.014512841
-1.9889326	đi nó	-0.014512841
-1.6049726	trước cố	-0.014512841
-1.8530221	họ cố	-0.014512841
-1.6049726	nó cố	-0.014512841
-1.6876881	nghe giảng	-0.014512841
-1.6014373	tiên kể	-0.014512841
-1.9650767	việc kể	-0.014512841
-1.6787916	lời kể	-0.014512841
-1.6781156	chưa kể	-0.014512841
-0.7932895	lỗ lần	-0.03449387
-2.4303482	là lần	-0.014512841
-2.0734813	một lần	-0.014512841
-1.6787916	tay lần	-0.014512841
-2.1680133	để vợ	-0.014512841
-1.6282998	hai vợ	-0.03449387
-1.211094	bà vợ	-0.014512841
-1.211094	lấy vợ	-0.014512841
-2.3390112	cho chồng	-0.014512841
-1.5070448	vợ chồng	-0.014512841
-2.1875186	ông chồng	-0.014512841
-1.3846383	lão chồng	-0.014512841
-1.6856806	chồng đùa	-0.014512841
-1.607769	chuyện đùa	-0.014512841
-1.2143364	đùa giỡn	-0.014512841
-2.1358452	tôi cũng	-0.014512841
-1.666267	này cũng	-0.014512841
-1.793324	cô cũng	-0.014512841
-1.0820825	ta cũng	-0.014512841
-1.7888781	họ cũng	-0.014512841
-1.1969936	sông cũng	-0.014512841
-1.4796002	phủ cũng	-0.014512841
-0.905477	tộc cũng	-0.014512841
-1.6380178	giờ cũng	-0.014512841
-1.640368	khách cũng	-0.014512841
-1.7673504	chúng cũng	-0.014512841
-0.905477	mã cũng	-0.014512841
-1.5675834	ai cũng	-0.014512841
-1.3637755	nam cũng	-0.014512841
-1.8530221	họ nhớ	-0.014512841
-2.0914848	cũng nhớ	-0.014512841
-1.2125297	gợi nhớ	-0.014512841
-1.5916399	<s> những	-0.014512841
-1.8783412	có những	-0.014512841
-2.1147	là những	-0.014512841
-2.1582558	của những	-0.014512841
-1.4512883	sạch những	-0.014512841
-1.741614	trong những	-0.014512841
-1.0658159	với những	-0.014512841
-1.736536	cả những	-0.014512841
-1.7005032	khi những	-0.014512841
-1.5371791	tạo những	-0.014512841
-1.5331596	thêm những	-0.014512841
-1.6506879	lại những	-0.014512841
-1.6506879	rằng những	-0.014512841
-1.4512883	kể những	-0.014512841
-1.3419278	nhớ những	-0.014512841
-1.6950566	về những	-0.014512841
-1.7659386	vì những	-0.03449387
-1.1819942	hữu những	-0.014512841
-0.78295064	sợ những	-0.014512841
-0.89774644	hát những	-0.014512841
-1.4512883	tới những	-0.014512841
-0.89774644	lựa những	-0.014512841
-1.1819942	mẽ những	-0.014512841
-1.1819942	bằng những	-0.014512841
-0.89774644	chang những	-0.014512841
-2.0692973	<s> điều	-0.024388455
-2.4887547	có điều	-0.014512841
-2.3669074	được điều	-0.014512841
-2.3270807	với điều	-0.014512841
-2.4034956	những điều	-0.014512841
-1.8355772	sự điều	-0.014512841
-1.7293942	vụ mà	-0.014512841
-1.7841649	điều mà	-0.014512841
-1.7293942	khó mà	-0.014512841
-1.7305958	chiếc mà	-0.03449387
-1.2068156	nề mà	-0.014512841
-0.910469	nhú mà	-0.014512841
-1.2068156	đình mà	-0.014512841
-1.9076675	người hàn	-0.014512841
-1.2136604	đua hàn	-0.014512841
-2.2615554	đã nói	-0.014512841
-1.5841806	chỉ nói	-0.014512841
-1.3756965	hàn nói	-0.014512841
-0.9090369	đặt nói	-0.014512841
-1.5841806	mỹ nói	-0.014512841
-0.9090369	luận nói	-0.014512841
-0.9090369	giọng nói	-0.014512841
-0.9090369	vương nói	-0.014512841
-0.9090369	push nói	-0.014512841
-3.2718623	<s> đơm	-0.014512841
-0.91425383	đơm đặt	-0.014512841
-1.861226	nói dối	-0.014512841
-1.7479632	khác nhau	-0.014512841
-0.9133476	dối nhau	-0.014512841
-1.2125297	coi nhau	-0.014512841
-2.497385	và tìm	-0.014512841
-1.2693524	đang tìm	-0.014512841
-2.4887547	có cách	-0.014512841
-1.7339625	học cách	-0.014512841
-2.3270807	với cách	-0.014512841
-0.79229414	tìm cách	-0.014512841
-1.3803848	tính cách	-0.014512841
-1.3803848	phong cách	-0.014512841
-1.0087047	tạo ra	-0.014512841
-1.0087047	đưa ra	-0.014512841
-1.5808101	tiếp ra	-0.014512841
-1.6536155	cá ra	-0.014512841
-1.7677447	quốc ra	-0.014512841
-1.7660768	ngoài ra	-0.014512841
-0.9083226	xảy ra	-0.014512841
-1.202579	duỗi ra	-0.014512841
-0.61595666	tỏ ra	-0.014512841
-0.9083226	bèo ra	-0.014512841
-2.4662182	không loại	-0.014512841
-1.7425737	cùng loại	-0.014512841
-2.186273	vào loại	-0.014512841
-1.9974293	ra loại	-0.014512841
-1.5121324	loại vải	-0.014512841
-1.6856806	phần vải	-0.014512841
-1.2143364	vải ướp	-0.014512841
-2.4479406	không ít	-0.014512841
-1.5979307	nó ít	-0.014512841
-0.91190594	ướp ít	-0.014512841
-1.5979307	cơ ít	-0.014512841
-1.504221	hoặc ít	-0.014512841
-1.3894821	hương thơm	-0.014512841
-0.913915	thơm vĩnh	-0.014512841
-1.5121324	văn vĩnh	-0.014512841
-1.2143364	vĩnh viễn	-0.014512841
-2.9457257	<s> hội	-0.014512841
-2.2774415	bị hội	-0.014512841
-2.3882618	là hội	-0.014512841
-1.5944521	cơ hội	-0.014512841
-1.2082372	lễ hội	-0.014512841
-0.9111869	hiệp hội	-0.014512841
-1.6856806	hội nghị	-0.014512841
-1.3884708	đề nghị	-0.014512841
-2.3721933	đã trưởng	-0.014512841
-1.5121324	bộ trưởng	-0.014512841
-1.5121324	á phi	-0.014512841
-1.3884708	nam phi	-0.014512841
-3.0032923	<s> kết	-0.014512841
-1.7867142	đã kết	-0.03449387
-1.7385794	bán kết	-0.014512841
-2.0450873	từ kết	-0.014512841
-1.673935	câu kết	-0.014512841
-1.6097008	kết thúc	-0.014512841
-3.1480625	<s> hôm	-0.014512841
-1.2125297	thúc hôm	-0.014512841
-0.9133476	bếp hôm	-0.014512841
-2.442335	một ngày	-0.014512841
-2.1359148	hai ngày	-0.014512841
-2.1233768	vào ngày	-0.014512841
-1.6576041	năm ngày	-0.014512841
-2.3450713	những ngày	-0.014512841
-1.3740816	ban ngày	-0.014512841
-2.0082817	từ ngày	-0.014512841
-1.5929917	đẹp ngày	-0.014512841
-0.9090369	phạm ngày	-0.014512841
-2.3241873	không làm	-0.014512841
-2.0658145	để làm	-0.014512841
-1.896868	phải làm	-0.014512841
-1.896868	thì làm	-0.014512841
-1.997335	cũng làm	-0.014512841
-1.7943333	ngày làm	-0.014512841
-0.90618664	hòn làm	-0.014512841
-1.5708525	mỹ làm	-0.014512841
-1.8324937	vì làm	-0.014512841
-1.7509131	ngoài làm	-0.014512841
-1.9263538	đi làm	-0.014512841
-1.1983833	lai làm	-0.014512841
-0.90618664	nhung làm	-0.014512841
-2.2111368	vào góc	-0.014512841
-0.913915	khép góc	-0.014512841
-1.2143364	góc chuồng	-0.014512841
-0.913915	chuồng khỉ	-0.014512841
-1.2136604	chặt khỉ	-0.014512841
-2.5181072	một mẹ	-0.014512841
-2.384823	người mẹ	-0.014512841
-1.2082372	khỉ mẹ	-0.014512841
-1.2082372	bố mẹ	-0.014512841
-1.2082372	sẻ mẹ	-0.014512841
-1.2082372	cha mẹ	-0.014512841
-1.5140556	ấp chặt	-0.014512841
-0.913915	cuộn chặt	-0.014512841
-2.7706282	<s> con	-0.014512841
-2.412896	có con	-0.014512841
-1.5808101	tiên con	-0.014512841
-2.314646	là con	-0.014512841
-2.4197552	một con	-0.014512841
-2.3272216	những con	-0.014512841
-1.202579	khỉ con	-0.014512841
-1.5808101	bởi con	-0.03449387
-1.3720007	tàu con	-0.014512841
-1.8541076	hơn con	-0.014512841
-2.3815637	trong lòng	-0.014512841
-2.186273	vào lòng	-0.014512841
-0.7932895	vui lòng	-0.014512841
-0.91262615	yên lòng	-0.014512841
-1.6142627	để che	-0.014512841
-1.8530221	ngày mưa	-0.014512841
-1.2125297	che mưa	-0.014512841
-1.2125297	cơn mưa	-0.014512841
-3.2718623	<s> 1giải	-0.014512841
-0.9133476	1giải pháp	-0.014512841
-0.2499084	biện pháp	-0.02773087
-1.2125297	phương pháp	-0.014512841
-1.5121324	pháp xử	-0.014512841
-1.2136604	ứng xử	-0.014512841
-1.2635831	hành lý	-0.014512841
-2.3686552	là lý	-0.014512841
-1.2068156	quản lý	-0.014512841
-1.2068156	xử lý	-0.014512841
-1.2068156	da lý	-0.014512841
-1.870033	vì lý	-0.014512841
-0.910469	nghịch lý	-0.014512841
-1.8112603	lý úng	-0.014512841
-0.913915	úng ngập	-0.014512841
