\data\
ngram 1=222
ngram 2=1

\1-grams:
-2.497059	<unk>	0
0	<s>	0
-1.2055076	</s>	0
-2.2508101	anh	0
-2.196778	có	0
-2.2508101	thích	0
-2.408482	tôi	0
-2.408482	giữ	0
-2.408482	trước	0
-2.408482	quyển	0
-2.408482	sách	0
-2.408482	này	0
-1.8745329	cho	0
-2.408482	không	0
-2.408482	cô	0
-2.408482	ta	0
-2.408482	nghi	0
-2.408482	ngờ	0
-2.408482	lúc	0
-2.2508101	mình	0
-2.408482	say	0
-2.408482	rượu	0
-2.2508101	đã	0
-2.408482	bị	0
-2.2508101	toán	0
-2.408482	cưỡng	0
-2.408482	bức	0
-2.408482	nên	0
-2.408482	ưu	0
-2.408482	tiên	0
-2.196778	các	0
-2.408482	hoạt	0
-2.408482	động	0
-2.408482	bí	0
-2.408482	mật	0
-2.408482	lỗ	0
-2.408482	mũi	0
-2.408482	hẹp	0
-2.408482	tài	0
-2.2508101	kiếm	0
-2.2508101	tiền	0
-2.408482	phờ	0
-2.408482	phạc	0
-2.408482	sau	0
-2.408482	hành	0
-2.196778	trình	0
-2.408482	dài	0
-2.408482	đâu	0
-2.0064287	là	0
-2.408482	nền	0
-2.408482	tảng	0
-2.408482	sinh	0
-2.2508101	học	0
-2.2508101	của	0
-2.408482	ý	0
-2.408482	thức	0
-2.408482	trẻ	0
-2.408482	em	0
-2.408482	ở	0
-2.408482	trường	0
-2.2508101	được	0
-2.408482	cung	0
-2.408482	cấp	0
-2.2508101	nước	0
-2.408482	sạch	0
-2.408482	để	0
-2.408482	uống	0
-2.196778	một	0
-2.408482	dãy	0
-2.408482	tủ	0
-2.408482	lạnh	0
-2.408482	xếp	0
-2.408482	dọc	0
-2.408482	theo	0
-2.408482	căn	0
-2.408482	phòng	0
-2.196778	hàng	0
-2.408482	nghìn	0
-2.0064287	người	0
-2.408482	trung	0
-2.408482	á	0
-2.408482	rời	0
-2.408482	quê	0
-2.408482	hương	0
-2.2508101	đến	0
-2.408482	nga	0
-2.408482	việc	0
-2.2508101	thu	0
-2.2508101	hoạch	0
-2.196778	và	0
-2.408482	bảo	0
-2.408482	quản	0
-2.408482	lúa	0
-2.408482	khâu	0
-2.408482	cuối	0
-2.408482	cùng	0
-2.408482	trong	0
-2.196778	mùa	0
-2.408482	vụ	0
-2.408482	mẫu	0
-2.2508101	phải	0
-2.408482	tập	0
-2.408482	tành	0
-2.408482	diễn	0
-2.408482	quần	0
-2.408482	quật	0
-2.408482	-N	0
-2.408482	tận	0
-2.408482	khuya	0
-2.408482	toàn	0
-2.408482	bộ	0
-2.408482	quy	0
-2.408482	điện	0
-2.408482	hóa	0
-2.408482	thư	0
-2.408482	viện	0
-2.408482	do	0
-2.2508101	công	0
-2.408482	ty	0
-2.408482	Lạc	0
-2.408482	Việt	0
-2.408482	giúp	0
-2.408482	nghiên	0
-2.408482	cứu	0
-2.408482	thiết	0
-2.2508101	kế	0
-2.408482	thế	0
-2.408482	nhưng	0
-2.2508101	đối	0
-2.408482	với	0
-2.408482	vượng	0
-2.2508101	thì	0
-2.408482	khác	0
-2.408482	chỉ	0
-2.408482	vài	0
-2.408482	tiếng	0
-2.408482	huýt	0
-2.408482	sáo	0
-2.408482	hắn	0
-2.408482	phục	0
-2.408482	cả	0
-2.408482	hai	0
-2.408482	chú	0
-2.408482	chó	0
-2.408482	rồi	0
-2.2508101	vào	0
-2.408482	nhà	0
-2.408482	khua	0
-2.408482	khi	0
-2.408482	tác	0
-2.2508101	đầu	-0.30103
-2.408482	tư	0
-2.408482	bạc	0
-2.408482	sức	0
-2.408482	hay	0
-2.408482	tò	0
-2.408482	mò	0
-2.408482	ưa	0
-2.408482	khám	0
-2.408482	phá	0
-2.408482	sáng	0
-2.408482	tạo	0
-2.408482	tâm	0
-2.408482	hồn	0
-2.408482	cởi	0
-2.408482	mở	0
-2.408482	họ	0
-2.408482	lắng	0
-2.408482	nghe	0
-2.408482	mọi	0
-2.408482	lời	0
-2.408482	khuyên	0
-2.408482	năm	0
-2.408482	nay	0
-2.408482	Tứ	0
-2.2508101	Sơn	0
-2.408482	đang	0
-2.408482	ấp	0
-2.408482	ủ	0
-2.408482	đưa	0
-2.408482	gạo	0
-2.408482	Tam	0
-2.408482	Giang	0
-2.2508101	,	0
-2.408482	Thất	0
-2.408482	Núi	0
-2.408482	Sam	0
-2.408482	mang	0
-2.408482	thêm	0
-2.408482	qua	0
-2.408482	Mỹ	0
-2.408482	chủ	0
-2.408482	cửa	0
-2.408482	trang	0
-2.408482	trí	0
-2.408482	nội	0
-2.408482	thất	0
-2.408482	trên	0
-2.408482	đường	0
-2.408482	Nguyễn	0
-2.408482	Bỉnh	0
-2.408482	Khiêm	0
-2.408482	biết	0
-2.2508101	nóng	0
-2.408482	mặt	0
-2.408482	quả	0
-2.408482	cầu	0
-2.408482	hút	0
-2.408482	nhiệt	0
-2.408482	tôn	0
-2.408482	pu	0
-2.408482	sơn	0
-2.408482	chống	0
-2.408482	vội	0
-2.408482	hít	0
-2.408482	hà	0
-2.408482	bóc	0
-2.408482	gỡ	0
-2.408482	mồm	0
-2.408482	nhai	0
-2.408482	ngấu	0
-2.408482	nghiến	0

\2-grams:
-0.29933777	đầu tư

\end\
