\data\
ngram 1=222
ngram 2=286
ngram 3=0

\1-grams:
-2.497059	<unk>	0
0	<s>	-0.30103
-1.2055076	</s>	0
-2.2508101	anh	-0.30103
-2.196778	có	-0.30103
-2.2508101	thích	-0.30103
-2.408482	tôi	-0.30103
-2.408482	giữ	-0.30103
-2.408482	trước	-0.30103
-2.408482	quyển	-0.30103
-2.408482	sách	-0.30103
-2.408482	này	-0.30103
-1.8745329	cho	-0.30103
-2.408482	không	-0.30103
-2.408482	cô	-0.30103
-2.408482	ta	-0.30103
-2.408482	nghi	-0.30103
-2.408482	ngờ	-0.30103
-2.408482	lúc	-0.30103
-2.2508101	mình	-0.30103
-2.408482	say	-0.30103
-2.408482	rượu	-0.30103
-2.2508101	đã	-0.30103
-2.408482	bị	-0.30103
-2.2508101	toán	-0.30103
-2.408482	cưỡng	-0.30103
-2.408482	bức	-0.30103
-2.408482	nên	-0.30103
-2.408482	ưu	-0.30103
-2.408482	tiên	-0.30103
-2.196778	các	-0.30103
-2.408482	hoạt	-0.30103
-2.408482	động	-0.30103
-2.408482	bí	-0.30103
-2.408482	mật	-0.30103
-2.408482	lỗ	-0.30103
-2.408482	mũi	-0.30103
-2.408482	hẹp	-0.30103
-2.408482	tài	-0.30103
-2.2508101	kiếm	-0.30103
-2.2508101	tiền	-0.30103
-2.408482	phờ	-0.30103
-2.408482	phạc	-0.30103
-2.408482	sau	-0.30103
-2.408482	hành	-0.30103
-2.196778	trình	-0.30103
-2.408482	dài	-0.30103
-2.408482	đâu	-0.30103
-2.0064287	là	-0.30103
-2.408482	nền	-0.30103
-2.408482	tảng	-0.30103
-2.408482	sinh	-0.30103
-2.2508101	học	-0.30103
-2.2508101	của	-0.30103
-2.408482	ý	-0.30103
-2.408482	thức	-0.30103
-2.408482	trẻ	-0.30103
-2.408482	em	-0.30103
-2.408482	ở	-0.30103
-2.408482	trường	-0.30103
-2.2508101	được	-0.30103
-2.408482	cung	-0.30103
-2.408482	cấp	-0.30103
-2.2508101	nước	-0.30103
-2.408482	sạch	-0.30103
-2.408482	để	-0.30103
-2.408482	uống	-0.30103
-2.196778	một	-0.30103
-2.408482	dãy	-0.30103
-2.408482	tủ	-0.30103
-2.408482	lạnh	-0.30103
-2.408482	xếp	-0.30103
-2.408482	dọc	-0.30103
-2.408482	theo	-0.30103
-2.408482	căn	-0.30103
-2.408482	phòng	-0.30103
-2.196778	hàng	-0.30103
-2.408482	nghìn	-0.30103
-2.0064287	người	-0.30103
-2.408482	trung	-0.30103
-2.408482	á	-0.30103
-2.408482	rời	-0.30103
-2.408482	quê	-0.30103
-2.408482	hương	-0.30103
-2.2508101	đến	-0.30103
-2.408482	nga	-0.30103
-2.408482	việc	-0.30103
-2.2508101	thu	-0.30103
-2.2508101	hoạch	-0.30103
-2.196778	và	-0.30103
-2.408482	bảo	-0.30103
-2.408482	quản	-0.30103
-2.408482	lúa	-0.30103
-2.408482	khâu	-0.30103
-2.408482	cuối	-0.30103
-2.408482	cùng	-0.30103
-2.408482	trong	-0.30103
-2.196778	mùa	-0.30103
-2.408482	vụ	-0.30103
-2.408482	mẫu	-0.30103
-2.2508101	phải	-0.30103
-2.408482	tập	-0.30103
-2.408482	tành	-0.30103
-2.408482	diễn	-0.30103
-2.408482	quần	-0.30103
-2.408482	quật	-0.30103
-2.408482	-N	-0.30103
-2.408482	tận	-0.30103
-2.408482	khuya	-0.30103
-2.408482	toàn	-0.30103
-2.408482	bộ	-0.30103
-2.408482	quy	-0.30103
-2.408482	điện	-0.30103
-2.408482	hóa	-0.30103
-2.408482	thư	-0.30103
-2.408482	viện	-0.30103
-2.408482	do	-0.30103
-2.2508101	công	-0.30103
-2.408482	ty	-0.30103
-2.408482	Lạc	-0.30103
-2.408482	Việt	-0.30103
-2.408482	giúp	-0.30103
-2.408482	nghiên	-0.30103
-2.408482	cứu	-0.30103
-2.408482	thiết	-0.30103
-2.2508101	kế	-0.30103
-2.408482	thế	-0.30103
-2.408482	nhưng	-0.30103
-2.2508101	đối	-0.30103
-2.408482	với	-0.30103
-2.408482	vượng	-0.30103
-2.2508101	thì	-0.30103
-2.408482	khác	-0.30103
-2.408482	chỉ	-0.30103
-2.408482	vài	-0.30103
-2.408482	tiếng	-0.30103
-2.408482	huýt	-0.30103
-2.408482	sáo	-0.30103
-2.408482	hắn	-0.30103
-2.408482	phục	-0.30103
-2.408482	cả	-0.30103
-2.408482	hai	-0.30103
-2.408482	chú	-0.30103
-2.408482	chó	-0.30103
-2.408482	rồi	-0.30103
-2.2508101	vào	-0.30103
-2.408482	nhà	-0.30103
-2.408482	khua	-0.30103
-2.408482	khi	-0.30103
-2.408482	tác	-0.30103
-2.2508101	đầu	-0.30103
-2.408482	tư	-0.30103
-2.408482	bạc	-0.30103
-2.408482	sức	-0.30103
-2.408482	hay	-0.30103
-2.408482	tò	-0.30103
-2.408482	mò	-0.30103
-2.408482	ưa	-0.30103
-2.408482	khám	-0.30103
-2.408482	phá	-0.30103
-2.408482	sáng	-0.30103
-2.408482	tạo	-0.30103
-2.408482	tâm	-0.30103
-2.408482	hồn	-0.30103
-2.408482	cởi	-0.30103
-2.408482	mở	-0.30103
-2.408482	họ	-0.30103
-2.408482	lắng	-0.30103
-2.408482	nghe	-0.30103
-2.408482	mọi	-0.30103
-2.408482	lời	-0.30103
-2.408482	khuyên	-0.30103
-2.408482	năm	-0.30103
-2.408482	nay	-0.30103
-2.408482	Tứ	-0.30103
-2.2508101	Sơn	-0.30103
-2.408482	đang	-0.30103
-2.408482	ấp	-0.30103
-2.408482	ủ	-0.30103
-2.408482	đưa	-0.30103
-2.408482	gạo	-0.30103
-2.408482	Tam	-0.30103
-2.408482	Giang	-0.30103
-2.2508101	,	-0.30103
-2.408482	Thất	-0.30103
-2.408482	Núi	-0.30103
-2.408482	Sam	-0.30103
-2.408482	mang	-0.30103
-2.408482	thêm	-0.30103
-2.408482	qua	-0.30103
-2.408482	Mỹ	-0.30103
-2.408482	chủ	-0.30103
-2.408482	cửa	-0.30103
-2.408482	trang	-0.30103
-2.408482	trí	-0.30103
-2.408482	nội	-0.30103
-2.408482	thất	-0.30103
-2.408482	trên	-0.30103
-2.408482	đường	-0.30103
-2.408482	Nguyễn	-0.30103
-2.408482	Bỉnh	-0.30103
-2.408482	Khiêm	-0.30103
-2.408482	biết	-0.30103
-2.2508101	nóng	-0.30103
-2.408482	mặt	-0.30103
-2.408482	quả	-0.30103
-2.408482	cầu	-0.30103
-2.408482	hút	-0.30103
-2.408482	nhiệt	-0.30103
-2.408482	tôn	-0.30103
-2.408482	pu	-0.30103
-2.408482	sơn	-0.30103
-2.408482	chống	-0.30103
-2.408482	vội	-0.30103
-2.408482	hít	-0.30103
-2.408482	hà	-0.30103
-2.408482	bóc	-0.30103
-2.408482	gỡ	-0.30103
-2.408482	mồm	-0.30103
-2.408482	nhai	-0.30103
-2.408482	ngấu	-0.30103
-2.408482	nghiến	-0.30103

\2-grams:
-1.2405883	<s> </s>	0
-0.2747826	không </s>	0
-0.2747826	bức </s>	0
-0.2747826	mật </s>	0
-0.55106145	tiền </s>	0
-0.2747826	dài </s>	0
-0.2747826	thức </s>	0
-0.2747826	uống </s>	0
-0.2747826	phòng </s>	0
-0.2747826	việc </s>	0
-0.2747826	vụ </s>	0
-0.2747826	khuya </s>	0
-0.55106145	kế </s>	0
-0.2747826	khua </s>	0
-0.2747826	sức </s>	0
-0.2747826	khuyên </s>	0
-0.2747826	Mỹ </s>	0
-0.55106145	nóng </s>	0
-0.2747826	nghiến </s>	0
-1.535775	<s> anh	0
-0.98797953	cho anh	0
-1.5302653	<s> có	0
-0.5965736	anh có	0
-0.2982781	hẹp có	0
-0.7708991	có thích	0
-0.29859912	họ thích	0
-0.59868217	thích tôi	0
-0.29933777	tôi giữ	0
-0.29933777	giữ trước	0
-0.29933777	trước quyển	0
-0.29933777	quyển sách	0
-0.29933777	sách này	0
-0.29527074	này cho	0
-0.29527074	tiên cho	0
-0.76109755	và cho	0
-0.29527074	Khiêm cho	0
-0.29527074	gỡ cho	0
-0.59868217	anh không	0
-1.5487076	<s> cô	0
-0.29933777	cô ta	0
-0.29933777	ta nghi	0
-0.29933777	nghi ngờ	0
-0.29933777	ngờ lúc	0
-0.29859912	lúc mình	0
-0.59721184	thì mình	0
-0.59868217	mình say	0
-0.29933777	say rượu	0
-0.29859912	rượu đã	0
-0.29859912	hắn đã	0
-0.59868217	đã bị	0
-0.29859912	bị toán	0
-0.29859912	điện toán	0
-0.59868217	toán cưỡng	0
-0.29933777	cưỡng bức	0
-0.77309424	có nên	0
-0.29933777	nên ưu	0
-0.29933777	ưu tiên	0
-0.98641175	cho các	0
-0.2982781	ở các	0
-0.2982781	dãy các	0
-0.77309424	các hoạt	0
-0.29933777	hoạt động	0
-0.29933777	động bí	0
-0.29933777	bí mật	0
-1.5487076	<s> lỗ	0
-0.29933777	lỗ mũi	0
-0.29933777	mũi hẹp	0
-0.77309424	có tài	0
-0.29859912	tài kiếm	0
-0.29859912	nga kiếm	0
-0.59721184	kiếm tiền	0
-0.59721184	tư tiền	0
-1.5487076	<s> phờ	0
-0.29933777	phờ phạc	0
-0.29933777	phạc sau	0
-0.29933777	sau hành	0
-0.2982781	hành trình	0
-0.2982781	tành trình	0
-0.2982781	quy trình	0
-0.77309424	trình dài	0
-1.5487076	<s> đâu	0
-1.5052568	<s> là	0
-0.29677185	đâu là	0
-0.29677185	lúa là	0
-0.593585	nóng là	0
-0.89636034	là nền	0
-0.29933777	nền tảng	0
-0.29933777	tảng sinh	0
-0.29859912	sinh học	0
-0.29859912	trường học	0
-0.59721184	học của	0
-0.7708991	mùa của	0
-0.59868217	của ý	0
-0.29933777	ý thức	0
-1.5487076	<s> trẻ	0
-0.29933777	trẻ em	0
-0.29933777	em ở	0
-0.77309424	các trường	0
-0.59721184	học được	0
-0.29859912	phục được	0
-0.59868217	được cung	0
-0.29933777	cung cấp	0
-0.29859912	cấp nước	0
-0.29859912	qua nước	0
-0.59868217	nước sạch	0
-0.29933777	sạch để	0
-0.29933777	để uống	0
-1.5302653	<s> một	0
-0.2982781	trong một	0
-0.2982781	chủ một	0
-0.77309424	một dãy	0
-0.77309424	các tủ	0
-0.29933777	tủ lạnh	0
-0.29933777	lạnh xếp	0
-0.29933777	xếp dọc	0
-0.29933777	dọc theo	0
-0.29933777	theo căn	0
-0.29933777	căn phòng	0
-1.5302653	<s> hàng	0
-0.2982781	cửa hàng	0
-0.2982781	mặt hàng	0
-0.77309424	hàng nghìn	0
-1.5052568	<s> người	0
-0.8863022	là người	0
-0.29677185	nghìn người	0
-0.29677185	mọi người	0
-0.89636034	người trung	0
-0.29933777	trung á	0
-0.29933777	á rời	0
-0.29933777	rời quê	0
-0.29933777	quê hương	0
-0.29859912	hương đến	0
-0.29859912	-N đến	0
-0.59868217	đến nga	0
-0.59868217	kiếm việc	0
-1.535775	<s> thu	0
-0.59721184	đã thu	0
-0.59721184	thu hoạch	0
-0.59721184	kế hoạch	0
-0.5965736	hoạch và	0
-0.2982781	nghe và	0
-0.2982781	pu và	0
-0.77309424	và bảo	0
-0.29933777	bảo quản	0
-0.29933777	quản lúa	0
-0.89636034	là khâu	0
-0.29933777	khâu cuối	0
-0.29933777	cuối cùng	0
-0.29933777	cùng trong	0
-0.89218557	là mùa	0
-0.76994735	một mùa	0
-0.2982781	biết mùa	0
-0.77309424	mùa vụ	0
-0.89636034	người mẫu	0
-0.59721184	mình phải	0
-0.29859912	mẫu phải	0
-0.59868217	phải tập	0
-0.29933777	tập tành	0
-0.77309424	trình diễn	0
-0.29933777	diễn quần	0
-0.29933777	quần quật	0
-0.29933777	quật -N	0
-0.59868217	đến tận	0
-0.29933777	tận khuya	0
-1.5487076	<s> toàn	0
-0.29933777	toàn bộ	0
-0.29933777	bộ quy	0
-0.77309424	trình điện	0
-0.59868217	toán hóa	0
-0.29933777	hóa thư	0
-0.29933777	thư viện	0
-0.29933777	viện do	0
-0.29859912	do công	0
-0.59721184	tư công	0
-0.59868217	công ty	0
-0.29933777	ty Lạc	0
-0.29933777	Lạc Việt	0
-0.29933777	Việt giúp	0
-0.29933777	giúp nghiên	0
-0.29933777	nghiên cứu	0
-0.29933777	cứu thiết	0
-0.29859912	thiết kế	0
-0.29859912	ủ kế	0
-1.5487076	<s> thế	0
-0.29933777	thế nhưng	0
-0.29859912	nhưng đối	0
-0.29859912	khi đối	0
-0.59868217	đối với	0
-0.29933777	với vượng	0
-0.29859912	vượng thì	0
-0.29859912	bạc thì	0
-0.59868217	thì khác	0
-0.29933777	khác chỉ	0
-0.29933777	chỉ vài	0
-0.29933777	vài tiếng	0
-0.29933777	tiếng huýt	0
-0.29933777	huýt sáo	0
-0.29933777	sáo hắn	0
-0.59868217	thu phục	0
-0.59868217	được cả	0
-0.29933777	cả hai	0
-0.29933777	hai chú	0
-0.29933777	chú chó	0
-0.29933777	chó rồi	0
-0.98797953	cho vào	0
-0.29859912	rồi vào	0
-0.59868217	vào nhà	0
-0.29933777	nhà khua	0
-1.5487076	<s> khi	0
-0.59868217	đối tác	0
-0.59721184	phải đầu	0
-0.29859912	tác đầu	0
-0.29933777	đầu tư	0
-0.59868217	tiền bạc	0
-0.59868217	công sức	0
-0.89636034	người hay	0
-0.29933777	hay tò	0
-0.29933777	tò mò	0
-0.29933777	mò ưa	0
-0.29933777	ưa khám	0
-0.29933777	khám phá	0
-0.29933777	phá sáng	0
-0.29933777	sáng tạo	0
-0.29933777	tạo tâm	0
-0.29933777	tâm hồn	0
-0.29933777	hồn cởi	0
-0.29933777	cởi mở	0
-0.29933777	mở họ	0
-0.59868217	thích lắng	0
-0.29933777	lắng nghe	0
-0.9916041	cho mọi	0
-0.89636034	người lời	0
-0.29933777	lời khuyên	0
-1.5487076	<s> năm	0
-0.29933777	năm nay	0
-0.29933777	nay Tứ	0
-0.29859912	Tứ Sơn	0
-0.29859912	Thất Sơn	0
-0.59868217	Sơn đang	0
-0.29933777	đang ấp	0
-0.29933777	ấp ủ	0
-0.59868217	hoạch đưa	0
-0.29933777	đưa gạo	0
-0.29933777	gạo Tam	0
-0.29933777	Tam Giang	0
-0.59721184	Sơn ,	0
-0.29859912	Giang ,	0
-0.59868217	, Thất	0
-0.59868217	, Núi	0
-0.29933777	Núi Sam	0
-0.29933777	Sam mang	0
-0.29933777	mang thêm	0
-0.29933777	thêm qua	0
-0.59868217	nước Mỹ	0
-1.5487076	<s> chủ	0
-0.77309424	một cửa	0
-0.77309424	hàng trang	0
-0.29933777	trang trí	0
-0.29933777	trí nội	0
-0.29933777	nội thất	0
-0.29933777	thất trên	0
-0.29933777	trên đường	0
-0.29933777	đường Nguyễn	0
-0.29933777	Nguyễn Bỉnh	0
-0.29933777	Bỉnh Khiêm	0
-0.9916041	cho biết	0
-0.7708991	mùa nóng	0
-0.29859912	chống nóng	0
-0.59868217	của mặt	0
-0.77309424	hàng quả	0
-0.29933777	quả cầu	0
-0.29933777	cầu hút	0
-0.29933777	hút nhiệt	0
-0.29933777	nhiệt tôn	0
-0.29933777	tôn pu	0
-0.77309424	và sơn	0
-0.29933777	sơn chống	0
-1.5487076	<s> vội	0
-0.29933777	vội hít	0
-0.29933777	hít hà	0
-0.29933777	hà bóc	0
-0.29933777	bóc gỡ	0
-0.59868217	vào mồm	0
-0.29933777	mồm nhai	0
-0.29933777	nhai ngấu	0
-0.29933777	ngấu nghiến	0

\3-grams:

\end\
